SVM-light Version V6.02
0 # kernel type
3 # kernel parameter -d 
1 # kernel parameter -g 
1 # kernel parameter -s 
1 # kernel parameter -r 
empty# kernel parameter -u 
1764 # highest feature index 
50 # number of training documents 
47 # number of support vectors plus 1 
-0.25260753 # threshold b, each following line is a SV (starting with alpha*y)
-0.020408163360521217 1:0.106697 2:0.078226 3:0.102373 4:0.119248 5:0.43995601 6:0.26427099 7:0 8:0 9:0 10:0.016285 11:0 12:0 13:0.007216 14:0.721075 15:0.41617399 16:0 17:0 18:0 19:0.018138001 20:0.0023020001 21:0.0016 22:0.001376 23:0.0043799998 24:0.0042119999 25:0 26:0 27:0 28:0.014769 29:0.0023020001 30:0.0028639999 31:0.002752 32:0.012691 33:0.012354 34:0 35:0 36:0 37:0.014659 38:0 39:0 40:0.0064949999 41:0.64904797 42:0.374603 43:0 44:0 45:0 46:0.031971 47:0.0024009999 48:0.0040440001 49:0.034524001 50:0.61829001 51:0.230241 52:0 53:0 54:0 55:0.013294 56:0.0020719999 57:0.0025780001 58:0.002477 59:0.011424 60:0.01112 61:0 62:0 63:0 64:0.0077340002 65:0.0073040002 66:0.0051810001 67:0.004069 68:0.003513 69:0.0025269999 70:0 71:0 72:0 73:0.037540998 74:0.002819 75:0.0047479998 76:0.040539 77:0.72601599 78:0.27035701 79:0 80:0 81:0 82:0.13357601 83:0.056237999 84:0.11939 85:0.084192999 86:0.52237302 87:0.28436401 88:0 89:0 90:0 91:0.0090810005 92:0.0085770003 93:0.0060840002 94:0.0047780001 95:0.004125 96:0.002968 97:0 98:0 99:0 100:0.011396 101:0.001662 102:0.003116 103:0.001039 104:0.011277 105:0.011277 106:0 107:0 108:0 109:0.118536 110:0.049906 111:0.105947 112:0.074713998 113:0.46355599 114:0.25234601 115:0 116:0 117:0 118:0.0079009999 119:0 120:0.00039500001 121:0.0053460002 122:0.773314 123:0.29911801 124:0 125:0 126:0 127:0.010113 128:0.0014750001 129:0.0027650001 130:0.00092199998 131:0.010007 132:0.010007 133:0 134:0 135:0 136:0.013168 137:0.00073700002 138:0.001106 139:0.00026299999 140:0.003424 141:0.003424 142:0 143:0 144:0 145:0.0081569999 146:0 147:0.00040799999 148:0.0055189999 149:0.79838502 150:0.30881599 151:0 152:0 153:0 154:0.064274997 155:0.029472999 156:0.082056999 157:0.038609002 158:0.48236501 159:0.143369 160:0 161:0 162:0 163:0.013595 164:0.00076099997 165:0.001142 166:0.000272 167:0.0035349999 168:0.0035349999 169:0 170:0 171:0 172:0.007613 173:0 174:0.0057100002 175:0.003643 176:0.015117 177:0.010876 178:0 179:0 180:0 181:0.097482003 182:0.0447 183:0.124451 184:0.058555 185:0.73157001 186:0.217438 187:0 188:0 189:0 190:0.032164 191:0.0023089999 192:0.0064329999 193:0.022515001 194:0.56468701 195:0.245272 196:0 197:0 198:0 199:0.011546 200:0 201:0.0086599998 202:0.0055260002 203:0.022926999 204:0.016494 205:0 206:0 207:0 208:0.031998999 209:0.007917 210:0.001113 211:0.005072 212:0.064121999 213:0.015134 214:0 215:0 216:0 217:0.049626 218:0.0035629999 219:0.0099250004 220:0.034738 221:0.87124997 222:0.37842801 223:0 224:0 225:0 226:0.123174 227:0.029266 228:0.0066169999 229:0.15644801 230:0.168855 231:0.015714999 232:0 233:0 234:0 235:0.049371 236:0.012216 237:0.001718 238:0.0078260005 239:0.098932996 240:0.02335 241:0 242:0 243:0 244:0.0025450001 245:0 246:0.0034360001 247:0.031621002 248:0.093653001 249:0.043072999 250:0 251:0 252:0 253:0.24947301 254:0.031667002 255:0.022012001 256:0.018923 257:0.060244001 258:0.057927001 259:0 260:0 261:0 262:0.20313101 263:0.031667002 264:0.039390001 265:0.037845999 266:0.17455401 267:0.169919 268:0 269:0 270:0 271:0.24869999 272:0.052907001 273:0.20081399 274:0.33983901 275:0.64453501 276:0.31280601 277:0 278:0 279:0 280:0.139025 281:0.101565 282:0.054838002 283:0.110448 284:0.177257 285:0.119716 286:0 287:0 288:0 289:0.37117201 290:0.057863001 291:0.071975999 292:0.069154002 293:0.31895399 294:0.31048599 295:0 296:0 297:0 298:0.215929 299:0.203933 300:0.144658 301:0.11361 302:0.098085001 303:0.070565 304:0 305:0 306:0 307:0.25403401 308:0.18558601 309:0.100202 310:0.20181599 311:0.32389399 312:0.218752 313:0 314:0 315:0 316:0.245566 317:0.107259 318:0.093145996 319:0.16230001 320:0.266736 321:0.183469 322:0 323:0 324:0 325:0.243242 326:0.229728 327:0.162956 328:0.12797999 329:0.110492 330:0.079490997 331:0 332:0 333:0 334:0.305244 335:0.044514999 336:0.083465002 337:0.027822001 338:0.30206501 339:0.30206501 340:0 341:0 342:0 343:0.27662799 344:0.120826 345:0.104928 346:0.18282899 347:0.300475 348:0.20667601 349:0 350:0 351:0 352:0.3434 353:0.108107 354:0.057232998 355:0.031796001 356:0.286167 357:0.238472 358:0 359:0 360:0 361:0.195126 362:0.028456001 363:0.053355001 364:0.017785 365:0.193094 366:0.193094 367:0 368:0 369:0 370:0.254071 371:0.014228 372:0.021342 373:0.0050809998 374:0.066058002 375:0.066058002 376:0 377:0 378:0 379:0.21951699 380:0.069107004 381:0.036586002 382:0.020326 383:0.18293101 384:0.15244199 385:0 386:0 387:0 388:0.13821501 389:0.069107004 390:0.079269998 391:0.16819499 392:0.718512 393:0.35112599 394:0 395:0 396:0 397:0.19611 398:0.010982 399:0.016473001 400:0.0039220001 401:0.050988998 402:0.050988998 403:0 404:0 405:0 406:0.109822 407:0 408:0.082365997 409:0.052558001 410:0.21807501 411:0.15688799 412:0 413:0 414:0 415:0.106684 416:0.053342 417:0.061186001 418:0.129825 419:0.5546 420:0.271025 421:0 422:0 423:0 424:0.119235 425:0.021964001 426:0.024318 427:0.282399 428:0.54048097 429:0.243177 430:0 431:0 432:0 433:0.098691002 434:0 435:0.074018002 436:0.047231 437:0.195972 438:0.14098699 439:0 440:0 441:0 442:0.273516 443:0.067674004 444:0.0095170001 445:0.043354001 446:0.54808801 447:0.129356 448:0 449:0 450:0 451:0.10715 452:0.019738 453:0.021853 454:0.253777 455:0.48570201 456:0.21853 457:0 458:0 459:0 460:0.016214 461:0.019033 462:0.0042300001 463:0.196677 464:0.32427099 465:0.144512 466:0 467:0 468:0 469:0.26989901 470:0.066779003 471:0.0093909996 472:0.042780001 473:0.540842 474:0.127646 475:0 476:0 477:0 478:0.013912 479:0 480:0.018781999 481:0.17286099 482:0.51197398 483:0.235466 484:0 485:0 486:0 487:0.015999001 488:0.018781999 489:0.0041740001 490:0.194077 491:0.31998399 492:0.142601 493:0 494:0 495:0 496:0.26433399 497:0.0097390004 498:0.034433 499:0.028867999 500:0.13912299 501:0.107821 502:0 503:0 504:0 505:0.23208 506:0.049371 507:0.18739399 508:0.317128 509:0.60146302 510:0.29190201 511:0 512:0 513:0 514:0.12973399 515:0.094778001 516:0.051173002 517:0.103067 518:0.165411 519:0.111716 520:0 521:0 522:0 523:0.044686001 524:0.020181 525:0.014055 526:0.05838 527:0.36722001 528:0.35316601 529:0 530:0 531:0 532:0.093696997 533:0 534:0.016217001 535:0.054416001 536:0.051894002 537:0.043244999 538:0 539:0 540:0 541:0.30365801 542:0.221839 543:0.119776 544:0.241239 545:0.387164 546:0.26148301 547:0 548:0 549:0 550:0.29353601 551:0.12821101 552:0.111341 553:0.194004 554:0.31884101 555:0.219308 556:0 557:0 558:0 559:0.219308 560:0 561:0.037957001 562:0.127368 563:0.121463 564:0.101219 565:0 566:0 567:0 568:0.26991799 569:0.094471 570:0.154359 571:0.066636004 572:0.18219499 573:0.17713401 574:0 575:0 576:0 577:0.279425 578:0.122048 579:0.105989 580:0.184678 581:0.303514 582:0.208766 583:0 584:0 585:0 586:0.34687299 587:0.109201 588:0.057812002 589:0.032118 590:0.28906101 591:0.24088401 592:0 593:0 594:0 595:0.25694299 596:0.089929998 597:0.14693899 598:0.063432999 599:0.173436 600:0.16861901 601:0 602:0 603:0 604:0.502644 605:0.065842003 606:0.081900999 607:0.024088001 608:0.112412 609:0.112412 610:0 611:0 612:0 613:0.22175799 614:0.069812998 615:0.036959998 616:0.020532999 617:0.184799 618:0.153999 619:0 620:0 621:0 622:0.139626 623:0.069812998 624:0.080078997 625:0.169912 626:0.72584802 627:0.354711 628:0 629:0 630:0 631:0.32134399 632:0.042093001 633:0.052359998 634:0.0154 635:0.071865998 636:0.071865998 637:0 638:0 639:0 640:0.215598 641:0 642:0.0231 643:0.025153 644:0.064680003 645:0.0616 646:0 647:0 648:0 649:0.104436 650:0.052218001 651:0.059897002 652:0.12709001 653:0.54291499 654:0.26531401 655:0 656:0 657:0 658:0.116723 659:0.021501999 660:0.023805 661:0.27644899 662:0.52909201 663:0.23805299 664:0 665:0 666:0 667:0.16126201 668:0 669:0.017278001 670:0.018813999 671:0.048379 672:0.046075001 673:0 674:0 675:0 676:0.376277 677:0 678:0.0057589998 679:0.014974 680:0.021501999 681:0.019198 682:0 683:0 684:0 685:0.13292 686:0.024484999 687:0.027109001 688:0.31481099 689:0.60251403 690:0.271088 691:0 692:0 693:0 694:0.020113001 695:0.023611 696:0.0052470001 697:0.24397901 698:0.40225899 699:0.179268 700:0 701:0 702:0 703:0.42849299 704:0 705:0.0065589999 706:0.017052 707:0.024484999 708:0.021862 709:0 710:0 711:0 712:0.069958001 713:0 714:0.0065589999 715:0.0021860001 716:0.021862 717:0.021862 718:0 719:0 720:0 721:0.029751999 722:0.034926001 723:0.0077610002 724:0.36090001 725:0.59503299 726:0.26517799 727:0 728:0 729:0 730:0.49154899 731:0.01811 732:0.064030997 733:0.053681999 734:0.25871 735:0.2005 736:0 737:0 738:0 739:0.103484 740:0 741:0.0097019998 742:0.0032339999 743:0.032338999 744:0.032338999 745:0 746:0 747:0 748:0.15522601 749:0 750:0.0097019998 751:0.025224 752:0.159107 753:0.15522601 754:0 755:0 756:0 757:0.050225999 758:0.022683 759:0.015797 760:0.065618001 761:0.41274801 762:0.39695099 763:0 764:0 765:0 766:0.105313 767:0 768:0.018227 769:0.061163001 770:0.058327001 771:0.048606001 772:0 773:0 774:0 775:0.117465 776:0.075340003 777:0.048200998 778:0.026327999 779:0.50631398 780:0.49011201 781:0 782:0 783:0 784:0.0081010005 785:0.011341 786:0.047391001 787:0.052657001 788:0.25315699 789:0.23492999 790:0 791:0 792:0 793:0.17014401 794:0 795:0.029448001 796:0.098814003 797:0.094232999 798:0.078528002 799:0 800:0 801:0 802:0.209408 803:0.073293 804:0.119755 805:0.051697999 806:0.14135 807:0.13742401 808:0 809:0 810:0 811:0.013088 812:0.018323001 813:0.076564997 814:0.085072003 815:0.40900001 816:0.37955201 817:0 818:0 819:0 820:0.569327 821:0.1636 822:0.068712004 823:0.089653 824:0.29971501 825:0.24867199 826:0 827:0 828:0 829:0.208217 830:0.072875999 831:0.119074 832:0.051403001 833:0.14054599 834:0.13664199 835:0 836:0 837:0 838:0.40732399 839:0.053355999 840:0.066368997 841:0.01952 842:0.091095001 843:0.091095001 844:0 845:0 846:0 847:0.56608897 848:0.162669 849:0.068320997 850:0.089143001 851:0.29800999 852:0.24725699 853:0 854:0 855:0 856:0.143149 857:0.068320997 858:0.097602002 859:0.091095001 860:0.30907199 861:0.24075 862:0 863:0 864:0 865:0.51189202 866:0.067052998 867:0.083407 868:0.024532 869:0.114481 870:0.114481 871:0 872:0 873:0 874:0.34344199 875:0 876:0.036796998 877:0.040068001 878:0.103033 879:0.098126002 880:0 881:0 882:0 883:0.17989799 884:0.085859999 885:0.122658 886:0.114481 887:0.38841599 888:0.30255601 889:0 890:0 891:0 892:0.119387 893:0.067052998 894:0.107939 895:0.171721 896:0.31891 897:0.294379 898:0 899:0 900:0 901:0.26440901 902:0 903:0.02833 904:0.030848 905:0.079323001 906:0.075545996 907:0 908:0 909:0 910:0.61695498 911:0 912:0.009443 913:0.024552001 914:0.035255 915:0.031477001 916:0 917:0 918:0 919:0.091913998 920:0.051623002 921:0.083099999 922:0.13220499 923:0.24552301 924:0.22663701 925:0 926:0 927:0 928:0.142277 929:0.047215998 930:0.052882001 931:0.107652 932:0.44319999 933:0.39031801 934:0 935:0 936:0 937:0.66294301 938:0 939:0.010147 940:0.026381999 941:0.037882 942:0.033824001 943:0 944:0 945:0 946:0.108236 947:0 948:0.010147 949:0.0033819999 950:0.033824001 951:0.033824001 952:0 953:0 954:0 955:0.15288299 956:0.050735001 957:0.056823999 958:0.115677 959:0.47623599 960:0.419413 961:0 962:0 963:0 964:0.189412 965:0 966:0 967:0 968:0.175883 969:0.175883 970:0 971:0 972:0 973:0.15955301 974:0 975:0.014958 976:0.0049859998 977:0.049860001 978:0.049860001 979:0 980:0 981:0 982:0.23932999 983:0 984:0.014958 985:0.038890999 986:0.245313 987:0.23932999 988:0 989:0 990:0 991:0.27921799 992:0 993:0 994:0 995:0.25927401 996:0.25927401 997:0 998:0 999:0 1000:0.70402902 1001:0.109693 1002:0.098724 1003:0.058835 1004:0.17550901 1005:0.169525 1006:0 1007:0 1008:0 1009:0.11509 1010:0.073816001 1011:0.047226001 1012:0.025796 1013:0.49607599 1014:0.48020101 1015:0 1016:0 1017:0 1018:0.0079370001 1019:0.011112 1020:0.046433002 1021:0.051592 1022:0.24803799 1023:0.230179 1024:0 1025:0 1026:0 1027:0.047623001 1028:0.022224 1029:0.021430001 1030:0.055163998 1031:0.33375999 1032:0.31352001 1033:0 1034:0 1035:0 1036:0.079372004 1037:0.011112 1038:0.033335999 1039:0.063101001 1040:0.31312299 1041:0.238116 1042:0 1043:0 1044:0 1045:0.010192 1046:0.014269 1047:0.059622999 1048:0.066248 1049:0.318501 1050:0.295569 1051:0 1052:0 1053:0 1054:0.443353 1055:0.1274 1056:0.053507999 1057:0.069815002 1058:0.23339701 1059:0.193648 1060:0 1061:0 1062:0 1063:0.10192 1064:0.014269 1065:0.042806 1066:0.081027001 1067:0.40207499 1068:0.30576101 1069:0 1070:0 1071:0 1072:0.227282 1073:0.048411999 1074:0.12791 1075:0.062171001 1076:0.26804999 1077:0.264992 1078:0 1079:0 1080:0 1081:0.47965801 1082:0.137833 1083:0.057890002 1084:0.075531997 1085:0.25251001 1086:0.20950601 1087:0 1088:0 1089:0 1090:0.121293 1091:0.057890002 1092:0.082699999 1093:0.077186003 1094:0.26188201 1095:0.20399199 1096:0 1097:0 1098:0 1099:0.245894 1100:0.052375998 1101:0.138384 1102:0.067262001 1103:0.28999999 1104:0.28669199 1105:0 1106:0 1107:0 1108:0.132319 1109:0.046312001 1110:0.077738002 1111:0.052928001 1112:0.33576101 1113:0.31425899 1114:0 1115:0 1116:0 1117:0.14659999 1118:0.069968 1119:0.099954002 1120:0.093291 1121:0.316522 1122:0.246554 1123:0 1124:0 1125:0 1126:0.097289003 1127:0.054641999 1128:0.087959997 1129:0.139936 1130:0.25988099 1131:0.23989099 1132:0 1133:0 1134:0 1135:0.159927 1136:0.055973999 1137:0.093956999 1138:0.063970998 1139:0.40581501 1140:0.37982699 1141:0 1142:0 1143:0 1144:0.217234 1145:0.054641999 1146:0.065970004 1147:0.207239 1148:0.31452301 1149:0.28653601 1150:0 1151:0 1152:0 1153:0.090026997 1154:0.050563 1155:0.081394002 1156:0.129491 1157:0.240483 1158:0.221984 1159:0 1160:0 1161:0 1162:0.139357 1163:0.046247002 1164:0.051796 1165:0.105442 1166:0.434102 1167:0.38230601 1168:0 1169:0 1170:0 1171:0.201019 1172:0.050563 1173:0.061046001 1174:0.19177 1175:0.29104599 1176:0.26514801 1177:0 1178:0 1179:0 1180:0.147989 1181:0 1182:0.036997002 1183:0.045630001 1184:0.35517401 1185:0.314477 1186:0 1187:0 1188:0 1189:0.144337 1190:0.047899999 1191:0.053647 1192:0.109211 1193:0.449617 1194:0.395969 1195:0 1196:0 1197:0 1198:0.17882501 1199:0 1200:0 1201:0 1202:0.166052 1203:0.166052 1204:0 1205:0 1206:0 1207:0.15327799 1208:0 1209:0.038320001 1210:0.047261 1211:0.36786801 1212:0.325717 1213:0 1214:0 1215:0 1216:0.102186 1217:0.031293999 1218:0.080471002 1219:0.159026 1220:0.348708 1221:0.287397 1222:0 1223:0 1224:0 1225:0.187278 1226:0 1227:0 1228:0 1229:0.17390101 1230:0.17390101 1231:0 1232:0 1233:0 1234:0.47220701 1235:0.073573001 1236:0.066215999 1237:0.039462 1238:0.117717 1239:0.113704 1240:0 1241:0 1242:0 1243:0.107016 1244:0.032774001 1245:0.084275 1246:0.16654301 1247:0.36519101 1248:0.300982 1249:0 1250:0 1251:0 1252:0.17390101 1253:0.037455998 1254:0.066215999 1255:0.107685 1256:0.41067299 1257:0.39462101 1258:0 1259:0 1260:0 1261:0.040398002 1262:0.018852999 1263:0.018178999 1264:0.046794999 1265:0.283126 1266:0.265957 1267:0 1268:0 1269:0 1270:0.067331001 1271:0.0094259996 1272:0.028279001 1273:0.053528 1274:0.26561999 1275:0.20199201 1276:0 1277:0 1278:0 1279:0.111432 1280:0.074400999 1281:0.021209 1282:0.001683 1283:0.52955699 1284:0.487138 1285:0 1286:0 1287:0 1288:0.31174201 1289:0.037032001 1290:0.035011999 1291:0.068003997 1292:0.218152 1293:0.191893 1294:0 1295:0 1296:0 1297:0.088189997 1298:0.012347 1299:0.037039999 1300:0.070110999 1301:0.34790999 1302:0.26457101 1303:0 1304:0 1305:0 1306:0.19666401 1307:0.041889999 1308:0.110679 1309:0.053796001 1310:0.23194 1311:0.229295 1312:0 1313:0 1314:0 1315:0.40832099 1316:0.048505001 1317:0.045859002 1318:0.089071997 1319:0.28573599 1320:0.251342 1321:0 1322:0 1323:0 1324:0.15786099 1325:0.080252998 1326:0.047182001 1327:0.158742 1328:0.41581699 1329:0.27779901 1330:0 1331:0 1332:0 1333:0.220422 1334:0.046951 1335:0.124049 1336:0.060295001 1337:0.25996 1338:0.25699499 1339:0 1340:0 1341:0 1342:0.118613 1343:0.041515 1344:0.069684997 1345:0.047444999 1346:0.30098 1347:0.28170601 1348:0 1349:0 1350:0 1351:0.17693099 1352:0.089947999 1353:0.052882001 1354:0.177919 1355:0.46605 1356:0.31135899 1357:0 1358:0 1359:0 1360:0.23228399 1361:0.054364 1362:0.0074129999 1363:0.052386999 1364:0.31580701 1365:0.23722599 1366:0 1367:0 1368:0 1369:0.131853 1370:0.046149001 1371:0.077463999 1372:0.052740999 1373:0.33457801 1374:0.31315199 1375:0 1376:0 1377:0 1378:0.17910101 1379:0.045049999 1380:0.054389 1381:0.17086001 1382:0.259312 1383:0.236237 1384:0 1385:0 1386:0 1387:0.25821301 1388:0.060433 1389:0.0082409997 1390:0.058235001 1391:0.35105899 1392:0.26370701 1393:0 1394:0 1395:0 1396:0.298868 1397:0.030765999 1398:0.016481999 1399:0.079660997 1400:0.36534399 1401:0.274694 1402:0 1403:0 1404:0 1405:0.19798499 1406:0.049800001 1407:0.060123999 1408:0.188875 1409:0.28665301 1410:0.26114601 1411:0 1412:0 1413:0 1414:0.14575601 1415:0 1416:0.036439002 1417:0.044941001 1418:0.349814 1419:0.30973199 1420:0 1421:0 1422:0 1423:0.33037999 1424:0.034010001 1425:0.01822 1426:0.088060997 1427:0.40386599 1428:0.30365801 1429:0 1430:0 1431:0 1432:0.13361 1433:0.051015001 1434:0.085631996 1435:0.107495 1436:0.30244401 1437:0.14575601 1438:0 1439:0 1440:0 1441:0.14160299 1442:0 1443:0.035401002 1444:0.043660998 1445:0.33984599 1446:0.30090499 1447:0 1448:0 1449:0 1450:0.094402 1451:0.028911 1452:0.074340999 1453:0.14691301 1454:0.322146 1455:0.26550499 1456:0 1457:0 1458:0 1459:0.129802 1460:0.049561001 1461:0.083191 1462:0.104432 1463:0.293825 1464:0.14160299 1465:0 1466:0 1467:0 1468:0.082601003 1469:0.033041 1470:0.067261003 1471:0.069620997 1472:0.46728799 1473:0.424808 1474:0 1475:0 1476:0 1477:0.079099 1478:0.024224 1479:0.062291 1480:0.123098 1481:0.26992601 1482:0.22246601 1483:0 1484:0 1485:0 1486:0.128536 1487:0.027685 1488:0.048943002 1489:0.079594001 1490:0.303543 1491:0.29167801 1492:0 1493:0 1494:0 1495:0.069211997 1496:0.027685 1497:0.056357998 1498:0.058336001 1499:0.391541 1500:0.355946 1501:0 1502:0 1503:0 1504:0.131502 1505:0.064762004 1506:0.04301 1507:0.210601 1508:0.48448199 1509:0.232354 1510:0 1511:0 1512:0 1513:0.111547 1514:0.074477002 1515:0.021230999 1516:0.001685 1517:0.53009897 1518:0.48763701 1519:0 1520:0 1521:0 1522:0.31206101 1523:0.037069999 1524:0.035048001 1525:0.068074003 1526:0.218375 1527:0.19208901 1528:0 1529:0 1530:0 1531:0.37069899 1532:0.105481 1533:0.014154 1534:0.001685 1535:0.097730003 1536:0.097730003 1537:0 1538:0 1539:0 1540:0.175239 1541:0.018872 1542:0.028308 1543:0.0067400001 1544:0.19208901 1545:0.19208901 1546:0 1547:0 1548:0 1549:0.35988599 1550:0.042750999 1551:0.040419001 1552:0.078506 1553:0.25184199 1554:0.22152799 1555:0 1556:0 1557:0 1558:0.139135 1559:0.070733003 1560:0.041584998 1561:0.13991199 1562:0.36649299 1563:0.244847 1564:0 1565:0 1566:0 1567:0.202096 1568:0.021764001 1569:0.032646 1570:0.0077729998 1571:0.22152799 1572:0.22152799 1573:0 1574:0 1575:0 1576:0.59695899 1577:0.074620001 1578:0.016323 1579:0.017100001 1580:0.052855998 1581:0.050524 1582:0 1583:0 1584:0 1585:0.143727 1586:0.073068 1587:0.042957999 1588:0.14453 1589:0.37858799 1590:0.25292799 1591:0 1592:0 1593:0 1594:0.188692 1595:0.044162001 1596:0.0060220002 1597:0.042555999 1598:0.25654101 1599:0.192707 1600:0 1601:0 1602:0 1603:0.61666101 1604:0.077082999 1605:0.016861999 1606:0.017665001 1607:0.0546 1608:0.052191 1609:0 1610:0 1611:0 1612:0.20555399 1613:0.0546 1614:0.028103 1615:0.115624 1616:0.35891601 1617:0.14453 1618:0 1619:0 1620:0 1621:0.248851 1622:0.058242001 1623:0.0079420004 1624:0.056124002 1625:0.338332 1626:0.25414601 1627:0 1628:0 1629:0 1630:0.288032 1631:0.029650001 1632:0.015884001 1633:0.076773003 1634:0.35209799 1635:0.264736 1636:0 1637:0 1638:0 1639:0.27108899 1640:0.072007999 1641:0.037062999 1642:0.15248799 1643:0.47334701 1644:0.19061001 1645:0 1646:0 1647:0 1648:0.23614401 1649:0.073067002 1650:0.050829001 1651:0.010589 1652:0.142957 1653:0.142957 1654:0 1655:0 1656:0 1657:0.34705001 1658:0.035726 1659:0.019138999 1660:0.092504002 1661:0.424243 1662:0.31898001 1663:0 1664:0 1665:0 1666:0.140351 1667:0.053589001 1668:0.089951999 1669:0.112919 1670:0.31770399 1671:0.15311 1672:0 1673:0 1674:0 1675:0.28453001 1676:0.088037997 1677:0.061244 1678:0.012759 1679:0.172249 1680:0.172249 1681:0 1682:0 1683:0 1684:0.411484 1685:0.066348001 1686:0.114833 1687:0.105263 1688:0.18883599 1689:0.185008 1690:0 1691:0 1692:0 1693:0.137575 1694:0.052529 1695:0.088173002 1696:0.110685 1697:0.31141999 1698:0.15008201 1699:0 1700:0 1701:0 1702:0.087548003 1703:0.035018999 1704:0.071289003 1705:0.073789999 1706:0.49527001 1707:0.45024499 1708:0 1709:0 1710:0 1711:0.40334499 1712:0.065035 1713:0.112561 1714:0.103181 1715:0.185101 1716:0.18134899 1717:0 1718:0 1719:0 1720:0.112561 1721:0 1722:0.028139999 1723:0.094425999 1724:0.22137 1725:0.20636199 1726:0 1727:0 1728:0 1729:0.075322002 1730:0.030129001 1731:0.061333001 1732:0.063484997 1733:0.42610601 1734:0.38736901 1735:0 1736:0 1737:0 1738:0.14311101 1739:0.070479997 1740:0.046806999 1741:0.229193 1742:0.52725202 1743:0.252866 1744:0 1745:0 1746:0 1747:0.096841998 1748:0 1749:0.024211001 1750:0.081239998 1751:0.190456 1752:0.177544 1753:0 1754:0 1755:0 1756:0.33679599 1757:0.059181001 1758:0.053263001 1759:0.046269 1760:0.123205 1761:0.102222 1762:0 1763:0 1764:0 #
-0.018770015438531955 1:0.076196998 2:0.026668999 3:0.097150996 4:0.060958002 5:0.34860101 6:0.342886 7:0 8:0 9:0 10:0.32383701 11:0 12:0.100009 13:0.091435999 14:0.32288501 15:0.285739 16:0 17:0 18:0 19:0.266689 20:0.053337999 21:0.094293997 22:0.120963 23:0.13144 24:0.114295 25:0 26:0 27:0 28:0.342886 29:0 30:0.028573999 31:0.0095250001 32:0.30478799 33:0.30478799 34:0 35:0 36:0 37:0.334122 38:0 39:0.103185 40:0.094339997 41:0.33313999 42:0.29481399 43:0 44:0 45:0 46:0.13758001 47:0.027516 48:0.041274 49:0.043239001 50:0.28105599 51:0.27516001 52:0 53:0 54:0 55:0.35377699 56:0 57:0.029480999 58:0.0098270001 59:0.314468 60:0.314468 61:0 62:0 63:0 64:0.235851 65:0 66:0.044222001 67:0.014741 68:0.235851 69:0.235851 70:0 71:0 72:0 73:0.155903 74:0.031181 75:0.046771001 76:0.048997998 77:0.31848699 78:0.31180599 79:0 80:0 81:0 82:0.35635 83:0 84:0.096882999 85:0.119154 86:0.374167 87:0.367486 88:0 89:0 90:0 91:0.26726201 92:0 93:0.050112002 94:0.016704001 95:0.26726201 96:0.26726201 97:0 98:0 99:0 100:0.178175 101:0.062360998 102:0.17706101 103:0.125836 104:0.15813001 105:0.144767 106:0 107:0 108:0 109:0.36695001 110:0 111:0.099765003 112:0.122699 113:0.38529801 114:0.37841699 115:0 116:0 117:0 118:0.045869 119:0.064216003 120:0.113525 121:0.028667999 122:0.26374599 123:0.26374599 124:0 125:0 126:0 127:0.183475 128:0.064216003 129:0.182328 130:0.12957899 131:0.162834 132:0.149074 133:0 134:0 135:0 136:0 137:0 138:0.017201001 139:0.0057339999 140:0.355483 141:0.355483 142:0 143:0 144:0 145:0.038034 146:0.053247999 147:0.094134003 148:0.023770999 149:0.218695 150:0.218695 151:0 152:0 153:0 154:0.47542399 155:0.079870999 156:0.148332 157:0.063707002 158:0.26909 159:0.237712 160:0 161:0 162:0 163:0 164:0 165:0.014263 166:0.0047539999 167:0.294763 168:0.294763 169:0 170:0 171:0 172:0.233909 173:0.104593 174:0.094134003 175:0.0561 176:0.357519 177:0.351814 178:0 179:0 180:0 181:0.444794 182:0.074725002 183:0.138776 184:0.059602 185:0.251753 186:0.222397 187:0 188:0 189:0 190:0.183255 191:0.072945997 192:0.024018999 193:0.0044479999 194:0.30246001 195:0.30246001 196:0 197:0 198:0 199:0.218839 200:0.097855002 201:0.088068999 202:0.052485999 203:0.33448499 204:0.32914701 205:0 206:0 207:0 208:0.21350101 209:0.024908001 210:0.117426 211:0.065829001 212:0.209943 213:0.204605 214:0 215:0 216:0 217:0.224199 218:0.089244001 219:0.029385 220:0.005442 221:0.37003699 222:0.37003699 223:0 224:0 225:0 226:0.43533701 227:0 228:0.032650001 229:0.010883 230:0.174135 231:0.174135 232:0 233:0 234:0 235:0.26120201 236:0.030474 237:0.14366101 238:0.080536999 239:0.25684899 240:0.250319 241:0 242:0 243:0 244:0.15236799 245:0 246:0.081625998 247:0.027209001 248:0.282969 249:0.282969 250:0 251:0 252:0 253:0.28358901 254:0.056717999 255:0.100269 256:0.128628 257:0.139769 258:0.121538 259:0 260:0 261:0 262:0.36461499 263:0 264:0.030385001 265:0.010128 266:0.32410201 267:0.32410201 268:0 269:0 270:0 271:0.22282 272:0 273:0.060768999 274:0.123564 275:0.22079501 276:0.202564 277:0 278:0 279:0 280:0.257256 281:0.19648699 282:0.164077 283:0.085077003 284:0.33017901 285:0.32410201 286:0 287:0 288:0 289:0.161238 290:0 291:0.013436 292:0.0044789999 293:0.143323 294:0.143323 295:0 296:0 297:0 298:0.107492 299:0 300:0.020155 301:0.0067179999 302:0.107492 303:0.107492 304:0 305:0 306:0 307:0.113762 308:0.086888999 309:0.072557002 310:0.037622001 311:0.14601 312:0.143323 313:0 314:0 315:0 316:0.68974 317:0.0094060004 318:0.164821 319:0.217223 320:0.37443 321:0.37174299 322:0 323:0 324:0 325:0.039230999 326:0 327:0.0073560001 328:0.002452 329:0.039230999 330:0.039230999 331:0 332:0 333:0 334:0.026154 335:0.0091540003 336:0.025991 337:0.018471001 338:0.023212001 339:0.02125 340:0 341:0 342:0 343:0.25173301 344:0.0034330001 345:0.060153998 346:0.079279996 347:0.136655 348:0.135674 349:0 350:0 351:0 352:0.93746102 353:0.021740999 354:0.011769 355:0.0088269999 356:0.036943 357:0.035962 358:0 359:0 360:0 361:0.027218999 362:0.0095269997 363:0.027048999 364:0.019223001 365:0.024157001 366:0.022115 367:0 368:0 369:0 370:0 371:0 372:0.0025520001 373:0.00085100002 374:0.052735999 375:0.052735999 376:0 377:0 378:0 379:0.975622 380:0.022626 381:0.012248 382:0.0091859996 383:0.038446002 384:0.037425999 385:0 386:0 387:0 388:0.183726 389:0 390:0.0025520001 391:0.006635 392:0.033342998 393:0.032322001 394:0 395:0 396:0 397:0 398:0 399:0.003798 400:0.001266 401:0.078487001 402:0.078487001 403:0 404:0 405:0 406:0.062283002 407:0.02785 408:0.025064999 409:0.014938 410:0.095197 411:0.093677998 412:0 413:0 414:0 415:0.27343899 416:0 417:0.003798 418:0.0098740002 419:0.049624 420:0.048105001 421:0 422:0 423:0 424:0.937796 425:0.021268001 426:0.010634 427:0.002532 428:0.048105001 429:0.048105001 430:0 431:0 432:0 433:0.056924 434:0.025454 435:0.022908 436:0.013652 437:0.087004997 438:0.085616998 439:0 440:0 441:0 442:0.055535 443:0.0064790002 444:0.030544 445:0.017123001 446:0.054609999 447:0.053220998 448:0 449:0 450:0 451:0.85709298 452:0.019437 453:0.0097190002 454:0.0023139999 455:0.043965001 456:0.043965001 457:0 458:0 459:0 460:0.476677 461:0.0064790002 462:0.023602 463:0.021057 464:0.043733999 465:0.034710001 466:0 467:0 468:0 469:0.103063 470:0.012024 471:0.056685001 472:0.031778 473:0.101346 474:0.098769002 475:0 476:0 477:0 478:0.060120001 479:0 480:0.032207001 481:0.010736 482:0.111652 483:0.111652 484:0 485:0 486:0 487:0.884628 488:0.012024 489:0.043802001 490:0.039078001 491:0.081161998 492:0.064415 493:0 494:0 495:0 496:0.28256601 497:0.098769002 498:0.073862001 499:0.026195001 500:0.154166 501:0.137418 502:0 503:0 504:0 505:0.23533601 506:0 507:0.064182997 508:0.130504 509:0.233197 510:0.21394201 511:0 512:0 513:0 514:0.27170601 515:0.207524 516:0.17329299 517:0.089855999 518:0.34872499 519:0.342307 520:0 521:0 522:0 523:0.19254801 524:0 525:0.112319 526:0.11018 527:0.17329299 528:0.160456 529:0 530:0 531:0 532:0.17115299 533:0 534:0.096274003 535:0.21394201 536:0.35300401 537:0.32091299 538:0 539:0 540:0 541:0.089832999 542:0.068612002 543:0.057294998 544:0.029708 545:0.115297 546:0.113175 547:0 548:0 549:0 550:0.54465401 551:0.007427 552:0.130151 553:0.17153101 554:0.29567 555:0.29354799 556:0 557:0 558:0 559:0.056586999 560:0 561:0.031830002 562:0.070734002 563:0.116712 564:0.106102 565:0 566:0 567:0 568:0.042440999 569:0.019805999 570:0.013793 571:0.023342 572:0.455883 573:0.44209 574:0 575:0 576:0 577:0.063666999 578:0.00086799997 579:0.015214 580:0.020051001 581:0.034561999 582:0.034313999 583:0 584:0 585:0 586:0.23709901 587:0.0054990002 588:0.0029770001 589:0.002232 590:0.0093430001 591:0.0090950001 592:0 593:0 594:0 595:0.0049609998 596:0.0023149999 597:0.0016120001 598:0.0027290001 599:0.053289998 600:0.051677998 601:0 602:0 603:0 604:0.93367797 605:0.23519699 606:0.029229 607:0 608:0.041342001 609:0.036380999 610:0 611:0 612:0 613:0.22829799 614:0.0052939998 615:0.0028659999 616:0.0021500001 617:0.0089969998 618:0.0087580001 619:0 620:0 621:0 622:0.042993002 623:0 624:0.00059700001 625:0.001553 626:0.0078019998 627:0.0075639999 628:0 629:0 630:0 631:0.89902198 632:0.226467 633:0.028144 634:0 635:0.039808001 636:0.035030998 637:0 638:0 639:0 640:0.209947 641:0.075914003 642:0.026233001 643:0.0090760002 644:0.126669 645:0.12619101 646:0 647:0 648:0 649:0.042808 650:0 651:0.00059499999 652:0.001546 653:0.0077689998 654:0.0075309998 655:0 656:0 657:0 658:0.146816 659:0.00333 660:0.001665 661:0.00039599999 662:0.0075309998 663:0.0075309998 664:0 665:0 666:0 667:0.20904601 668:0.075588003 669:0.026121 670:0.0090370001 671:0.12612499 672:0.12564901 673:0 674:0 675:0 676:0.93947703 677:0.095247999 678:0.0093149999 679:0.015974 680:0.039122 681:0.030521 682:0 683:0 684:0 685:0.133875 686:0.0030360001 687:0.001518 688:0.00036100001 689:0.0068669999 690:0.0068669999 691:0 692:0 693:0 694:0.074455 695:0.001012 696:0.0036869999 697:0.0032889999 698:0.0068310001 699:0.0054210001 700:0 701:0 702:0 703:0.85666901 704:0.086851999 705:0.008494 706:0.014566 707:0.035673 708:0.027829999 709:0 710:0 711:0 712:0.405094 713:0.15978999 714:0.101671 715:0.084792003 716:0.117177 717:0.108069 718:0 719:0 720:0 721:0.107965 722:0.001467 723:0.0053460002 724:0.0047690002 725:0.0099060005 726:0.0078619998 727:0 728:0 729:0 730:0.034485999 731:0.012054 732:0.0090150004 733:0.0031969999 734:0.018815 735:0.016771 736:0 737:0 738:0 739:0.58741498 740:0.23170599 741:0.14743 742:0.122955 743:0.16991401 744:0.156707 745:0 746:0 747:0 748:0.68405902 749:0.0067090001 750:0 751:0 752:0.120544 753:0.120544 754:0 755:0 756:0 757:0.195012 758:0 759:0.113757 760:0.11159 761:0.175511 762:0.16250999 763:0 764:0 765:0 766:0.173344 767:0 768:0.097506002 769:0.21668001 770:0.35752201 771:0.32501999 772:0 773:0 774:0 775:0.23834801 776:0 777:0.065003999 778:0.021668 779:0.31418601 780:0.31418601 781:0 782:0 783:0 784:0.195012 785:0.030335 786:0.14300901 787:0.072587997 788:0.360773 789:0.32501999 790:0 791:0 792:0 793:0.017005 794:0 795:0.0095650004 796:0.021257 797:0.035073001 798:0.031885002 799:0 800:0 801:0 802:0.012754 803:0.0059520002 804:0.0041450001 805:0.0070150001 806:0.136999 807:0.132854 808:0 809:0 810:0 811:0.019130999 812:0.0029760001 813:0.014029 814:0.007121 815:0.035392001 816:0.031885002 817:0 818:0 819:0 820:0.031885002 821:0.0052080001 822:0.0086089997 823:0.0039320001 824:0.75386399 825:0.62281698 826:0 827:0 828:0 829:0.0040899999 830:0.001909 831:0.001329 832:0.0022489999 833:0.043933 834:0.042603999 835:0 836:0 837:0 838:0.76972997 839:0.19389801 840:0.024096999 841:0 842:0.034083001 843:0.029993 844:0 845:0 846:0 847:0.010225 848:0.00167 849:0.0027610001 850:0.0012610001 851:0.241751 852:0.199726 853:0 854:0 855:0 856:0.142399 857:0.13023099 858:0.242943 859:0.086332001 860:0.321266 861:0.24110299 862:0 863:0 864:0 865:0.738141 866:0.185941 867:0.023108 868:0 869:0.032683998 870:0.028762 871:0 872:0 873:0 874:0.17237701 875:0.062329002 876:0.021539001 877:0.0074519999 878:0.104001 879:0.103609 880:0 881:0 882:0 883:0.136555 884:0.124886 885:0.23297299 886:0.082788996 887:0.30808201 888:0.231208 889:0 890:0 891:0 892:0.27794701 893:0.0050989999 894:0.002909 895:0.021276999 896:0.14315701 897:0.14315701 898:0 899:0 900:0 901:0.157107 902:0.056807999 903:0.019631 904:0.006792 905:0.094788 906:0.094430998 907:0 908:0 909:0 910:0.70605803 911:0.071583003 912:0.0070000002 913:0.012005 914:0.029402001 915:0.022937 916:0 917:0 918:0 919:0.25332499 920:0.0046470002 921:0.0026509999 922:0.019393001 923:0.130476 924:0.130476 925:0 926:0 927:0 928:0.51180398 929:0.207599 930:0.15332399 931:0.011111 932:0.111857 933:0.093387999 934:0 935:0 936:0 937:0.62887001 938:0.063757002 939:0.0062350002 940:0.010693 941:0.026187001 942:0.02043 943:0 944:0 945:0 946:0.29737499 947:0.1173 948:0.074635997 949:0.062245 950:0.086018004 951:0.079332002 952:0 953:0 954:0 955:0.455852 956:0.18490399 957:0.136562 958:0.0098970002 959:0.099629 960:0.083178997 961:0 962:0 963:0 964:0.314753 965:0.096339002 966:0.062245 967:0.038736999 968:0.216557 969:0.188857 970:0 971:0 972:0 973:0.384969 974:0.151851 975:0.096620001 976:0.080580004 977:0.111355 978:0.1027 979:0 980:0 981:0 982:0.44830599 983:0.0043970002 984:0 985:0 986:0.079000004 987:0.079000004 988:0 989:0 990:0 991:0.40746701 992:0.124716 993:0.080580004 994:0.050147999 995:0.28034601 996:0.244487 997:0 998:0 999:0 1000:0.383836 1001:0.070207 1002:0.144982 1003:0.024249 1004:0.193858 1005:0.189943 1006:0 1007:0 1008:0 1009:0.23317 1010:0 1011:0.063592002 1012:0.021197001 1013:0.30735999 1014:0.30735999 1015:0 1016:0 1017:0 1018:0.19077501 1019:0.029676 1020:0.139902 1021:0.071010999 1022:0.352934 1023:0.31795901 1024:0 1025:0 1026:0 1027:0.36035299 1028:0 1029:0.031796001 1030:0.046634 1031:0.281923 1032:0.27556399 1033:0 1034:0 1035:0 1036:0.14838099 1037:0 1038:0.111286 1039:0.037094999 1040:0.26496601 1041:0.26496601 1042:0 1043:0 1044:0 1045:0.019477 1046:0.00303 1047:0.014283 1048:0.0072499998 1049:0.036033001 1050:0.032462001 1051:0 1052:0 1053:0 1054:0.032462001 1055:0.0053019999 1056:0.0087649999 1057:0.0040040002 1058:0.76750797 1059:0.63409001 1060:0 1061:0 1062:0 1063:0.015149 1064:0 1065:0.011362 1066:0.003787 1067:0.027052 1068:0.027052 1069:0 1070:0 1071:0 1072:0.017313 1073:0.00606 1074:0.018828001 1075:0.011253 1076:0.035275001 1077:0.028134 1078:0 1079:0 1080:0 1081:0.016164999 1082:0.0026400001 1083:0.0043649999 1084:0.001994 1085:0.38219899 1086:0.31575999 1087:0 1088:0 1089:0 1090:0.225127 1091:0.205891 1092:0.384085 1093:0.13648801 1094:0.50791103 1095:0.38117501 1096:0 1097:0 1098:0 1099:0.0086209998 1100:0.0030179999 1101:0.0093759997 1102:0.0056039998 1103:0.017565999 1104:0.01401 1105:0 1106:0 1107:0 1108:0.050919998 1109:0.002964 1110:0.0025859999 1111:0.018536 1112:0.218661 1113:0.19991 1114:0 1115:0 1116:0 1117:0.181547 1118:0.166034 1119:0.30973399 1120:0.110067 1121:0.40958899 1122:0.30738699 1123:0 1124:0 1125:0 1126:0.36952499 1127:0.0067790002 1128:0.0038670001 1129:0.028287999 1130:0.19032501 1131:0.19032501 1132:0 1133:0 1134:0 1135:0.041063 1136:0.00239 1137:0.0020860001 1138:0.014948 1139:0.176333 1140:0.161211 1141:0 1142:0 1143:0 1144:0.47511601 1145:0.037629999 1146:0.0093860002 1147:0.029114 1148:0.20575 1149:0.17290001 1150:0 1151:0 1152:0 1153:0.276292 1154:0.0050679999 1155:0.0028919999 1156:0.021151001 1157:0.142305 1158:0.142305 1159:0 1160:0 1161:0 1162:0.55820501 1163:0.226421 1164:0.167224 1165:0.012119 1166:0.121999 1167:0.101855 1168:0 1169:0 1170:0 1171:0.35524201 1172:0.028136 1173:0.0070179999 1174:0.021768 1175:0.15383901 1176:0.12927601 1177:0 1178:0 1179:0 1180:0.499594 1181:0.080022 1182:0.040125001 1183:0.012119 1184:0.144969 1185:0.14068 1186:0 1187:0 1188:0 1189:0.50461602 1190:0.204684 1191:0.151171 1192:0.010955 1193:0.110287 1194:0.092077002 1195:0 1196:0 1197:0 1198:0.34842399 1199:0.106645 1200:0.068902999 1201:0.042881001 1202:0.239723 1203:0.20906 1204:0 1205:0 1206:0 1207:0.45163199 1208:0.072339997 1209:0.036272999 1210:0.010955 1211:0.131052 1212:0.127175 1213:0 1214:0 1215:0 1216:0.349334 1217:0.088463999 1218:0.086760998 1219:0.15451901 1220:0.107702 1221:0.049695 1222:0 1223:0 1224:0 1225:0.43621799 1226:0.133517 1227:0.086264998 1228:0.053686 1229:0.300127 1230:0.261738 1231:0 1232:0 1233:0 1234:0.41091901 1235:0.075161003 1236:0.155212 1237:0.025961 1238:0.207537 1239:0.203345 1240:0 1241:0 1242:0 1243:0.43735799 1244:0.110755 1245:0.108622 1246:0.193454 1247:0.13484 1248:0.062217001 1249:0 1250:0 1251:0 1252:0.19635899 1253:0 1254:0.020114001 1255:0.029344 1256:0.13936301 1257:0.072255999 1258:0 1259:0 1260:0 1261:0.119079 1262:0 1263:0.010507 1264:0.01541 1265:0.093162 1266:0.091059998 1267:0 1268:0 1269:0 1270:0.049031999 1271:0 1272:0.036773998 1273:0.012258 1274:0.087558001 1275:0.087558001 1276:0 1277:0 1278:0 1279:0.091059998 1280:0 1281:0.036773998 1282:0.024165999 1283:0.12118 1284:0.119079 1285:0 1286:0 1287:0 1288:0.95262903 1289:0 1290:0.015760001 1291:0.017161001 1292:0.033622 1293:0.031521 1294:0 1295:0 1296:0 1297:0.042971998 1298:0 1299:0.032228999 1300:0.010743 1301:0.076736003 1302:0.076736003 1303:0 1304:0 1305:0 1306:0.049111001 1307:0.017189 1308:0.053408001 1309:0.031922001 1310:0.100063 1311:0.079805002 1312:0 1313:0 1314:0 1315:0.83488399 1316:0 1317:0.013812 1318:0.01504 1319:0.029467 1320:0.027625 1321:0 1322:0 1323:0 1324:0.49110901 1325:0 1326:0.013812 1327:0.0046040001 1328:0.104361 1329:0.104361 1330:0 1331:0 1332:0 1333:0.014187 1334:0.0049660001 1335:0.015429 1336:0.0092219999 1337:0.028906999 1338:0.023054 1339:0 1340:0 1341:0 1342:0.083793998 1343:0.0048770001 1344:0.0042559998 1345:0.030502999 1346:0.35982701 1347:0.32896999 1348:0 1349:0 1350:0 1351:0.141874 1352:0 1353:0.0039900001 1354:0.00133 1355:0.030148 1356:0.030148 1357:0 1358:0 1359:0 1360:0.48706999 1361:0.219106 1362:0.124583 1363:0.186653 1364:0.46836099 1365:0.41888201 1366:0 1367:0 1368:0 1369:0.044268001 1370:0.0025760001 1371:0.0022489999 1372:0.016114 1373:0.190093 1374:0.17379101 1375:0 1376:0 1377:0 1378:0.51219201 1379:0.040566999 1380:0.010118 1381:0.031385001 1382:0.221806 1383:0.18639199 1384:0 1385:0 1386:0 1387:0.257314 1388:0.115752 1389:0.065816 1390:0.098607004 1391:0.24743 1392:0.22129101 1393:0 1394:0 1395:0 1396:0.34973699 1397:0.019862 1398:0.075793996 1399:0.015177 1400:0.360605 1401:0.34617701 1402:0 1403:0 1404:0 1405:0.381598 1406:0.030223999 1407:0.0075380001 1408:0.023383001 1409:0.165252 1410:0.138868 1411:0 1412:0 1413:0 1414:0.53666002 1415:0.085959002 1416:0.043102 1417:0.013018 1418:0.155725 1419:0.151118 1420:0 1421:0 1422:0 1423:0.26056501 1424:0.014798 1425:0.056467999 1426:0.011308 1427:0.26866099 1428:0.25791201 1429:0 1430:0 1431:0 1432:0.47883001 1433:0.032841001 1434:0.046592001 1435:0.047777999 1436:0.094056003 1437:0.089344002 1438:0 1439:0 1440:0 1441:0.51885301 1442:0.083107002 1443:0.041671999 1444:0.012586 1445:0.150557 1446:0.14610299 1447:0 1448:0 1449:0 1450:0.40132901 1451:0.101631 1452:0.099674001 1453:0.177517 1454:0.123732 1455:0.057092 1456:0 1457:0 1458:0 1459:0.462942 1460:0.031750999 1461:0.045046002 1462:0.046193 1463:0.090934999 1464:0.086379997 1465:0 1466:0 1467:0 1468:0.40068799 1469:0.191723 1470:0.100282 1471:0.040895 1472:0.046530001 1473:0.012147 1474:0 1475:0 1476:0 1477:0.546552 1478:0.13840701 1479:0.13574199 1480:0.241753 1481:0.168506 1482:0.077751003 1483:0 1484:0 1485:0 1486:0.24538299 1487:0 1488:0.025136 1489:0.036669999 1490:0.17415801 1491:0.090296 1492:0 1493:0 1494:0 1495:0.54567897 1496:0.26109901 1497:0.13656899 1498:0.055693999 1499:0.063368 1500:0.016542999 1501:0 1502:0 1503:0 1504:0.196674 1505:0.011626 1506:0.012269 1507:0.012867 1508:0.13969401 1509:0.13969401 1510:0 1511:0 1512:0 1513:0.017625 1514:0 1515:0.0071180002 1516:0.0046780002 1517:0.023455 1518:0.023049001 1519:0 1520:0 1521:0 1522:0.184389 1523:0 1524:0.0030509999 1525:0.0033219999 1526:0.0065080002 1527:0.0061010001 1528:0 1529:0 1530:0 1531:0.108464 1532:0 1533:0 1534:0.0029829999 1535:0.169882 1536:0.16337401 1537:0 1538:0 1539:0 1540:0.825683 1541:0.38050601 1542:0.071653999 1543:0.11226 1544:0.166357 1545:0.158629 1546:0 1547:0 1548:0 1549:0.16541 1550:0 1551:0.0027369999 1552:0.0029800001 1553:0.0058380002 1554:0.005473 1555:0 1556:0 1557:0 1558:0.0973 1559:0 1560:0.0027369999 1561:0.00091200002 1562:0.020676 1563:0.020676 1564:0 1565:0 1566:0 1567:0.74069601 1568:0.34134099 1569:0.064278997 1570:0.100705 1571:0.149234 1572:0.14230099 1573:0 1574:0 1575:0 1576:0.474702 1577:0.0041350001 1578:0.017392 1579:0.0073580001 1580:0.096630998 1581:0.072366998 1582:0 1583:0 1584:0 1585:0.107616 1586:0 1587:0.003027 1588:0.001009 1589:0.022868 1590:0.022868 1591:0 1592:0 1593:0 1594:0.36945999 1595:0.1662 1596:0.094499998 1597:0.141583 1598:0.355268 1599:0.31773701 1600:0 1601:0 1602:0 1603:0.525033 1604:0.0045739999 1605:0.019236 1606:0.008138 1607:0.106876 1608:0.08004 1609:0 1610:0 1611:0 1612:0.450441 1613:0.033831999 1614:0.041769002 1615:0.060467001 1616:0.187319 1617:0.169159 1618:0 1619:0 1620:0 1621:0.27568901 1622:0.124017 1623:0.070515998 1624:0.105648 1625:0.26509899 1626:0.237094 1627:0 1628:0 1629:0 1630:0.37471199 1631:0.02128 1632:0.081206001 1633:0.016261 1634:0.386356 1635:0.37089801 1636:0 1637:0 1638:0 1639:0.336117 1640:0.025245 1641:0.031167001 1642:0.045120001 1643:0.139777 1644:0.12622599 1645:0 1646:0 1647:0 1648:0.25671801 1649:0.021632001 1650:0.119751 1651:0.014454 1652:0.221836 1653:0.221836 1654:0 1655:0 1656:0 1657:0.31175101 1658:0.017704999 1659:0.067561001 1660:0.013529 1661:0.321439 1662:0.30857801 1663:0 1664:0 1665:0 1666:0.57289398 1667:0.039292999 1668:0.055744 1669:0.057163998 1670:0.112533 1671:0.106896 1672:0 1673:0 1674:0 1675:0.21358299 1676:0.017997 1677:0.099629998 1678:0.012026 1679:0.184562 1680:0.184562 1681:0 1682:0 1683:0 1684:0.32077101 1685:0.038665999 1686:0.037246 1687:0.0042590001 1688:0.24143399 1689:0.225316 1690:0 1691:0 1692:0 1693:0.50994098 1694:0.034975 1695:0.049619 1696:0.050882999 1697:0.100167 1698:0.095149003 1699:0 1700:0 1701:0 1702:0.44136599 1703:0.21118701 1704:0.110462 1705:0.045047 1706:0.051254001 1707:0.01338 1708:0 1709:0 1710:0 1711:0.28552201 1712:0.034417 1713:0.033154 1714:0.003791 1715:0.214904 1716:0.20055699 1717:0 1718:0 1719:0 1720:0.44140401 1721:0.085114002 1722:0.024308 1723:0.047536999 1724:0.22401001 1725:0.181155 1726:0 1727:0 1728:0 1729:0.51525098 1730:0.24654 1731:0.12895399 1732:0.052588001 1733:0.059834 1734:0.01562 1735:0 1736:0 1737:0 1738:0.185707 1739:0.010978 1740:0.011585 1741:0.012149 1742:0.13190401 1743:0.13190401 1744:0 1745:0 1746:0 1747:0.51529503 1748:0.099362001 1749:0.028377 1750:0.055495001 1751:0.261509 1752:0.211481 1753:0 1754:0 1755:0 1756:0.366815 1757:0.146874 1758:0.13459399 1759:0.054453999 1760:0.093460999 1761:0.049897999 1762:0 1763:0 1764:0 #
-0.018823959862297356 1:0.053599998 2:0 3:0.040199999 4:0.043772999 5:0.344825 6:0.33946499 7:0 8:0 9:0 10:0.107199 11:0 12:0.026799999 13:0.0089330003 14:0.31266499 15:0.31266499 16:0 17:0 18:0 19:0.25013199 20:0.025013 21:0.117919 22:0.096479997 23:0.27871901 24:0.26799899 25:0 26:0 27:0 28:0.25013199 29:0 30:0.026799999 31:0.033053 32:0.368945 33:0.33946499 34:0 35:0 36:0 37:0.101774 38:0 39:0.025443001 40:0.0084809996 41:0.29684001 42:0.29684001 43:0 44:0 45:0 46:0.067849003 47:0 48:0.038164999 49:0.012722 50:0.24595299 51:0.24595299 52:0 53:0 54:0 55:0.237472 56:0 57:0.025443001 58:0.031380001 59:0.350272 60:0.32228401 61:0 62:0 63:0 64:0.169623 65:0.01781 66:0.185737 67:0.24086501 68:0.412184 69:0.33076501 70:0 71:0 72:0 73:0.066621996 74:0 75:0.037475001 76:0.012492 77:0.241504 78:0.241504 79:0 80:0 81:0 82:0.283142 83:0.046634998 84:0.082443997 85:0.077448003 86:0.193203 87:0.18321 88:0 89:0 90:0 91:0.166554 92:0.017488001 93:0.182377 94:0.236507 95:0.40472701 96:0.324781 97:0 98:0 99:0 100:0.199865 101:0.023318 102:0.022484999 103:0.054963 104:0.39057001 105:0.35809201 106:0 107:0 108:0 109:0.30503899 110:0.050241999 111:0.088820003 112:0.083437003 113:0.20814399 114:0.19737799 115:0 116:0 117:0 118:0.26915199 119:0 120:0.094203003 121:0.092409 122:0.190201 123:0.179435 124:0 125:0 126:0 127:0.215322 128:0.025121 129:0.024224 130:0.059213001 131:0.420775 132:0.38578501 133:0 134:0 135:0 136:0.215322 137:0.075363003 138:0.24762 139:0.132782 140:0.27094701 141:0.26018 142:0 143:0 144:0 145:0.312419 146:0 147:0.109347 148:0.107264 149:0.22077601 150:0.208279 151:0 152:0 153:0 154:0.062484 155:0 156:0.031242 157:0.010414 158:0.239521 159:0.239521 160:0 161:0 162:0 163:0.249935 164:0.087476999 165:0.28742501 166:0.154127 167:0.31450099 168:0.30200499 169:0 170:0 171:0 172:0.208279 173:0 174:0.015621 175:0.040614001 176:0.36032301 177:0.354074 178:0 179:0 180:0 181:0.072861999 182:0 183:0.036431 184:0.012144 185:0.279304 186:0.279304 187:0 188:0 189:0 190:0.218586 191:0 192:0.054646 193:0.018215001 194:0.206442 195:0.206442 196:0 197:0 198:0 199:0.242873 200:0 201:0.018215001 202:0.047359999 203:0.42017001 204:0.412884 205:0 206:0 207:0 208:0.26716 209:0 210:0.072861999 211:0.024287 212:0.32787901 213:0.32787901 214:0 215:0 216:0 217:0.213126 218:0 219:0.053281002 220:0.017759999 221:0.201286 222:0.201286 223:0 224:0 225:0 226:0.189445 227:0 228:0.053281002 229:0.017759999 230:0.46177301 231:0.46177301 232:0 233:0 234:0 235:0.26048699 236:0 237:0.071042001 238:0.023681 239:0.31968901 240:0.31968901 241:0 242:0 243:0 244:0.142084 245:0 246:0.071042001 247:0.023681 248:0.224966 249:0.224966 250:0 251:0 252:0 253:0.167574 254:0.016757 255:0.078998998 256:0.064636 257:0.18672501 258:0.179544 259:0 260:0 261:0 262:0.167574 263:0 264:0.017953999 265:0.022143999 266:0.247172 267:0.227422 268:0 269:0 270:0 271:0.33514801 272:0.050271999 273:0.10234 274:0.026931999 275:0.083787002 276:0.083787002 277:0 278:0 279:0 280:0.73074198 281:0.13884699 282:0.061044998 283:0.019151 284:0.175354 285:0.155604 286:0 287:0 288:0 289:0.090291999 290:0 291:0.0096739996 292:0.011931 293:0.13318101 294:0.12254 295:0 296:0 297:0 298:0.064494997 299:0.0067719999 300:0.070621997 301:0.091582 302:0.15672199 303:0.125764 304:0 305:0 306:0 307:0.39373901 308:0.074813999 309:0.032892 310:0.010319 311:0.094484001 312:0.083843 313:0 314:0 315:0 316:0.77586901 317:0.05869 318:0.0087069999 319:0.010319 320:0.269265 321:0.21218701 322:0 323:0 324:0 325:0.069868997 326:0.007336 327:0.076507002 328:0.099214002 329:0.169782 330:0.136244 331:0 332:0 333:0 334:0.083843 335:0.0097820004 336:0.0094320001 337:0.023057001 338:0.16384301 339:0.150218 340:0 341:0 342:0 343:0.84052402 344:0.063580997 345:0.0094320001 346:0.011179 347:0.29170299 348:0.22986899 349:0 350:0 351:0 352:0.060086999 353:0.055195998 354:0.058341 355:0.028996 356:0.087335996 357:0.087335996 358:0 359:0 360:0 361:0.22364999 362:0.026093001 363:0.025161 364:0.061503999 365:0.43705001 366:0.40070599 367:0 368:0 369:0 370:0.22364999 371:0.078277998 372:0.25719801 373:0.137918 374:0.28142601 375:0.270244 376:0 377:0 378:0 379:0.160283 380:0.147236 381:0.155623 382:0.077345997 383:0.232969 384:0.232969 385:0 386:0 387:0 388:0.037275001 389:0.026093001 390:0.053117 391:0.013978 392:0.232969 393:0.232969 394:0 395:0 396:0 397:0.245543 398:0.085940003 399:0.28237501 400:0.151418 401:0.30897501 402:0.296698 403:0 404:0 405:0 406:0.20461901 407:0 408:0.015346 409:0.039901 410:0.353991 411:0.347853 412:0 413:0 414:0 415:0.040924001 416:0.028647 417:0.058316 418:0.015346 419:0.25577399 420:0.25577399 421:0 422:0 423:0 424:0.061386 425:0 426:0.030693 427:0.010231 428:0.327391 429:0.327391 430:0 431:0 432:0 433:0.207514 434:0 435:0.015564 436:0.040465001 437:0.35899901 438:0.35277301 439:0 440:0 441:0 442:0.228265 443:0 444:0.062254 445:0.020750999 446:0.28014401 447:0.28014401 448:0 449:0 450:0 451:0.062254 452:0 453:0.031127 454:0.010376 455:0.33202201 456:0.33202201 457:0 458:0 459:0 460:0.228265 461:0 462:0.093381003 463:0.066404 464:0.317496 465:0.31127101 466:0 467:0 468:0 469:0.211798 470:0 471:0.057762999 472:0.019254001 473:0.25993401 474:0.25993401 475:0 476:0 477:0 478:0.115526 479:0 480:0.057762999 481:0.019254001 482:0.182917 483:0.182917 484:0 485:0 486:0 487:0.211798 488:0 489:0.086645 490:0.061613999 491:0.29459199 492:0.288816 493:0 494:0 495:0 496:0.019254001 497:0.026955999 498:0.069316 499:0.110713 500:0.51505399 501:0.47173199 502:0 503:0 504:0 505:0.096198 506:0.01443 507:0.029375 508:0.0077300002 509:0.024049001 510:0.024049001 511:0 512:0 513:0 514:0.209746 515:0.039852999 516:0.017522 517:0.0054970002 518:0.050331999 519:0.044663001 520:0 521:0 522:0 523:0.42945501 524:0.090356998 525:0.080565996 526:0.071805 527:0.227955 528:0.192396 529:0 530:0 531:0 532:0.57375097 533:0.020442 534:0.003607 535:0 536:0.40781 537:0.385822 538:0 539:0 540:0 541:0.097990997 542:0.018619001 543:0.0081860004 544:0.002568 545:0.023514999 546:0.020865999 547:0 548:0 549:0 550:0.193093 551:0.014606 552:0.002167 553:0.002568 554:0.067013003 555:0.052808002 556:0 557:0 558:0 559:0.268051 560:0.0095499996 561:0.001685 562:0 563:0.190525 564:0.180252 565:0 566:0 567:0 568:0.839948 569:0.21853399 570:0.149675 571:0.14486 572:0.078249 573:0.026163001 574:0 575:0 576:0 577:0.208764 578:0.015791999 579:0.0023429999 580:0.002777 581:0.072451003 582:0.057092998 583:0 584:0 585:0 586:0.014924 587:0.013709 588:0.01449 589:0.0072019999 590:0.021692 591:0.021692 592:0 593:0 594:0 595:0.90811402 596:0.236269 597:0.16182201 598:0.156616 599:0.084599003 600:0.028286001 601:0 602:0 603:0 604:0.043384001 605:0.0024300001 606:0.0062469998 607:0.007028 608:0.051105998 609:0.047722001 610:0 611:0 612:0 613:0.138008 614:0.126775 615:0.13399599 616:0.066597 617:0.20059299 618:0.20059299 619:0 620:0 621:0 622:0.032095 623:0.022466 624:0.045735002 625:0.012036 626:0.20059299 627:0.20059299 628:0 629:0 630:0 631:0.40118501 632:0.022466 633:0.057771001 634:0.064992003 635:0.47259599 636:0.441304 637:0 638:0 639:0 640:0.211826 641:0.067399003 642:0.12998401 643:0.116344 644:0.252747 645:0.21664 646:0 647:0 648:0 649:0.041451 650:0.029015999 651:0.059068002 652:0.015544 653:0.25907099 654:0.25907099 655:0 656:0 657:0 658:0.062176999 659:0 660:0.031089 661:0.010363 662:0.33161101 663:0.33161101 664:0 665:0 666:0 667:0.273579 668:0.087048002 669:0.167878 670:0.150261 671:0.32642999 672:0.27979699 673:0 674:0 675:0 676:0.103629 677:0 678:0.062176999 679:0.055959001 680:0.38964301 681:0.38342601 682:0 683:0 684:0 685:0.062987998 686:0 687:0.031493999 688:0.010498 689:0.33593601 690:0.33593601 691:0 692:0 693:0 694:0.230956 695:0 696:0.094481997 697:0.067186996 698:0.32123899 699:0.31494001 700:0 701:0 702:0 703:0.10498 704:0 705:0.062987998 706:0.056689002 707:0.39472499 708:0.38842601 709:0 710:0 711:0 712:0.132275 713:0.115478 714:0.10393 715:0.133325 716:0.249853 717:0.230956 718:0 719:0 720:0 721:0.21024001 722:0 723:0.086006999 724:0.061161 725:0.29242501 726:0.28669101 727:0 728:0 729:0 730:0.019113 731:0.026758 732:0.068806 733:0.109898 734:0.51126498 735:0.46826199 736:0 737:0 738:0 739:0.12041 740:0.10512 741:0.094608001 742:0.121366 743:0.227441 744:0.21024001 745:0 746:0 747:0 748:0.23508599 749:0.071672998 750:0.137612 751:0.033447001 752:0.162458 753:0.162458 754:0 755:0 756:0 757:0.171433 758:0.03607 759:0.032161001 760:0.028664 761:0.090997003 762:0.076802 763:0 764:0 765:0 766:0.229035 767:0.0081599997 768:0.00144 769:0 770:0.162793 771:0.154015 772:0 773:0 774:0 775:0.764386 776:0.27045301 777:0.140026 778:0.13584401 779:0.16224401 780:0.148118 781:0 782:0 783:0 784:0.183502 785:0.043818001 786:0.036001001 787:0.017279999 788:0.21436 789:0.153741 790:0 791:0 792:0 793:0.17327499 794:0.006174 795:0.001089 796:0 797:0.12316 798:0.11652 799:0 800:0 801:0 802:0.54296303 803:0.141266 804:0.096754 805:0.093640998 806:0.050581999 807:0.016912 808:0 809:0 810:0 811:0.13882799 812:0.033151001 813:0.027236 814:0.013073 815:0.162173 816:0.116312 817:0 818:0 819:0 820:0.68075299 821:0.266294 822:0.056288 823:0.075223997 824:0.026458001 825:0.021788999 826:0 827:0 828:0 829:0.57680899 830:0.15007199 831:0.102785 832:0.099477999 833:0.053734999 834:0.017967001 835:0 836:0 837:0 838:0.027556 839:0.001543 840:0.0039679999 841:0.004464 842:0.032460999 843:0.030312 844:0 845:0 846:0 847:0.72318798 848:0.282893 849:0.059797 850:0.079912998 851:0.028107001 852:0.023147 853:0 854:0 855:0 856:0.055002 857:0.019400001 858:0.0057870001 859:0.0080460003 860:0.017030001 861:0.01488 862:0 863:0 864:0 865:0.28537601 866:0.015981 867:0.041094001 868:0.046231002 869:0.336173 870:0.313914 871:0 872:0 873:0 874:0.15067901 875:0.047943 876:0.092462003 877:0.082759 878:0.179787 879:0.154103 880:0 881:0 882:0 883:0.56961101 884:0.200905 885:0.059928998 886:0.083329998 887:0.17636301 888:0.154103 889:0 890:0 891:0 892:0.136981 893:0.047943 894:0.054792002 895:0.046231002 896:0.284805 897:0.262546 898:0 899:0 900:0 901:0.20082 902:0.063896999 903:0.12323 904:0.110299 905:0.23961499 906:0.205384 907:0 908:0 909:0 910:0.076067999 911:0 912:0.045641001 913:0.041076999 914:0.28601599 915:0.281452 916:0 917:0 918:0 919:0.18256401 920:0.063896999 921:0.073025003 922:0.061615001 923:0.37957999 924:0.349913 925:0 926:0 927:0 928:0.136923 929:0.021299001 930:0.066179 931:0.060093999 932:0.422939 933:0.37273401 934:0 935:0 936:0 937:0.083908997 938:0 939:0.050345 940:0.045311 941:0.31549701 942:0.310462 943:0 944:0 945:0 946:0.105725 947:0.092299998 948:0.083070002 949:0.106564 950:0.19970299 951:0.184599 952:0 953:0 954:0 955:0.15103599 956:0.023494 957:0.073000997 958:0.066288002 959:0.46653301 960:0.41115299 961:0 962:0 963:0 964:0.021816 965:0.045311 966:0.073000997 967:0.198025 968:0.34989899 969:0.30207101 970:0 971:0 972:0 973:0.102955 974:0.089882001 975:0.080893002 976:0.103772 977:0.194471 978:0.179763 979:0 980:0 981:0 982:0.20100801 983:0.061283 984:0.117663 985:0.028599 986:0.138908 987:0.138908 988:0 989:0 990:0 991:0.021245001 992:0.044124 993:0.071088001 994:0.192837 995:0.34073299 996:0.29415801 997:0 998:0 999:0 1000:0.081710003 1001:0.045758002 1002:0.12992001 1003:0.19773901 1004:0.51722699 1005:0.46575001 1006:0 1007:0 1008:0 1009:0.63801098 1010:0.225739 1011:0.116876 1012:0.113385 1013:0.13542099 1014:0.12363 1015:0 1016:0 1017:0 1018:0.153164 1019:0.036573999 1020:0.030049 1021:0.014424 1022:0.17892 1023:0.128323 1024:0 1025:0 1026:0 1027:0.397104 1028:0.124489 1029:0.16941901 1030:0.116018 1031:0.30220699 1032:0.24955 1033:0 1034:0 1035:0 1036:0.117334 1037:0.019688999 1038:0.0073830001 1039:0.022837 1040:0.12797999 1041:0.085969001 1042:0 1043:0 1044:0 1045:0.15188 1046:0.036267001 1047:0.029797001 1048:0.014303 1049:0.17742001 1050:0.127248 1051:0 1052:0 1053:0 1054:0.744757 1055:0.29133001 1056:0.061581001 1057:0.082296997 1058:0.028945999 1059:0.023838 1060:0 1061:0 1062:0 1063:0.116351 1064:0.019524001 1065:0.0073219999 1066:0.022646001 1067:0.12690701 1068:0.085248001 1069:0 1070:0 1071:0 1072:0.38094899 1073:0.169475 1074:0.088993996 1075:0.18951 1076:0.128553 1077:0.057324 1078:0 1079:0 1080:0 1081:0.68846601 1082:0.26931101 1083:0.056926001 1084:0.076076999 1085:0.026758 1086:0.022035999 1087:0 1088:0 1089:0 1090:0.052361999 1091:0.018468 1092:0.0055089998 1093:0.0076600001 1094:0.016212 1095:0.014166 1096:0 1097:0 1098:0 1099:0.352155 1100:0.156665 1101:0.082268 1102:0.17518599 1103:0.118837 1104:0.052990999 1105:0 1106:0 1107:0 1108:0.32618499 1109:0.28646699 1110:0.21028601 1111:0.062907003 1112:0.0055610002 1113:0.0026229999 1114:0 1115:0 1116:0 1117:0.106381 1118:0.037521001 1119:0.011192 1120:0.015563 1121:0.032938 1122:0.02878 1123:0 1124:0 1125:0 1126:0.025583001 1127:0.0089539997 1128:0.010233 1129:0.0086340001 1130:0.053190999 1131:0.049033001 1132:0 1133:0 1134:0 1135:0.66269702 1136:0.58200502 1137:0.42723 1138:0.12780701 1139:0.011299 1140:0.0053300001 1141:0 1142:0 1143:0 1144:0.021319 1145:0 1146:0.0095929997 1147:0.0068219998 1148:0.026222 1149:0.025583001 1150:0 1151:0 1152:0 1153:0.196658 1154:0.068829998 1155:0.078662999 1156:0.066372 1157:0.408885 1158:0.376928 1159:0 1160:0 1161:0 1162:0.147493 1163:0.022942999 1164:0.071287997 1165:0.064732999 1166:0.45559099 1167:0.40151 1168:0 1169:0 1170:0 1171:0.163882 1172:0 1173:0.073747002 1174:0.052441999 1175:0.201574 1176:0.196658 1177:0 1178:0 1179:0 1180:0.18027 1181:0.045887001 1182:0.068829998 1183:0.127828 1184:0.191741 1185:0.172076 1186:0 1187:0 1188:0 1189:0.139571 1190:0.021710999 1191:0.067459002 1192:0.061255999 1193:0.43111801 1194:0.379942 1195:0 1196:0 1197:0 1198:0.020160001 1199:0.041871 1200:0.067459002 1201:0.18299299 1202:0.32333899 1203:0.27914101 1204:0 1205:0 1206:0 1207:0.170586 1208:0.043421999 1209:0.065132998 1210:0.120961 1211:0.18144201 1212:0.16283201 1213:0 1214:0 1215:0 1216:0.33031699 1217:0.117084 1218:0.21555901 1219:0.182217 1220:0.263634 1221:0.193848 1222:0 1223:0 1224:0 1225:0.01719 1226:0.035702001 1227:0.057519998 1228:0.15603 1229:0.27569801 1230:0.238012 1231:0 1232:0 1233:0 1234:0.066114999 1235:0.037023999 1236:0.105122 1237:0.159997 1238:0.41850501 1239:0.37685299 1240:0 1241:0 1242:0 1243:0.28164801 1244:0.099832997 1245:0.183798 1246:0.155369 1247:0.22478899 1248:0.165286 1249:0 1250:0 1251:0 1252:0.136196 1253:0.072725996 1254:0.035702001 1255:0.105122 1256:0.36429101 1257:0.29090399 1258:0 1259:0 1260:0 1261:0.449651 1262:0.140962 1263:0.191837 1264:0.13136999 1265:0.34219599 1266:0.28257099 1267:0 1268:0 1269:0 1270:0.13286 1271:0.022295 1272:0.0083600003 1273:0.025859 1274:0.144915 1275:0.097344004 1276:0 1277:0 1278:0 1279:0.34867701 1280:0.015814001 1281:0.029424001 1282:0.010499 1283:0.127676 1284:0.127676 1285:0 1286:0 1287:0 1288:0.457688 1289:0.053015001 1290:0.032923002 1291:0.072782002 1292:0.26954401 1293:0.175635 1294:0 1295:0 1296:0 1297:0.106591 1298:0.017887 1299:0.0067070001 1300:0.020746 1301:0.116262 1302:0.078097999 1303:0 1304:0 1305:0 1306:0.348995 1307:0.155259 1308:0.081528999 1309:0.173614 1310:0.11777 1311:0.052515998 1312:0 1313:0 1314:0 1315:0.36719301 1316:0.042532001 1317:0.026413999 1318:0.058391001 1319:0.21625 1320:0.140908 1321:0 1322:0 1323:0 1324:0.264294 1325:0.2384 1326:0.36682999 1327:0.49094301 1328:0.23008101 1329:0.079553001 1330:0 1331:0 1332:0 1333:0.32812399 1334:0.145974 1335:0.076654002 1336:0.163231 1337:0.110727 1338:0.049375001 1339:0 1340:0 1341:0 1342:0.30392599 1343:0.26691899 1344:0.19593599 1345:0.058614999 1346:0.0051819999 1347:0.002444 1348:0 1349:0 1350:0 1351:0.24848901 1352:0.224143 1353:0.344892 1354:0.461584 1355:0.21632101 1356:0.074795999 1357:0 1358:0 1359:0 1360:0.32944399 1361:0.045024 1362:0.040672999 1363:0.017990001 1364:0.072839998 1365:0.064041004 1366:0 1367:0 1368:0 1369:0.53004497 1370:0.465505 1371:0.341712 1372:0.102224 1373:0.0090370001 1374:0.0042630001 1375:0 1376:0 1377:0 1378:0.017051 1379:0 1380:0.007673 1381:0.0054560001 1382:0.020973001 1383:0.020462001 1384:0 1385:0 1386:0 1387:0.57454902 1388:0.078521997 1389:0.070933998 1390:0.031374998 1391:0.127033 1392:0.111687 1393:0 1394:0 1395:0 1396:0.020462001 1397:0.0071620001 1398:0.0094640004 1399:0.0079290001 1400:0.034272999 1401:0.03325 1402:0 1403:0 1404:0 1405:0.188811 1406:0 1407:0.084964998 1408:0.060419999 1409:0.23223799 1410:0.22657301 1411:0 1412:0 1413:0 1414:0.207692 1415:0.052866999 1416:0.079301 1417:0.147273 1418:0.220909 1419:0.19825201 1420:0 1421:0 1422:0 1423:0.22657301 1424:0.079301 1425:0.10479 1426:0.087797001 1427:0.37950999 1428:0.368182 1429:0 1430:0 1431:0 1432:0.037762001 1433:0.026434001 1434:0.053810999 1435:0.110454 1436:0.40405601 1437:0.387063 1438:0 1439:0 1440:0 1441:0.106423 1442:0.02709 1443:0.040633999 1444:0.075464003 1445:0.113195 1446:0.101586 1447:0 1448:0 1449:0 1450:0.206074 1451:0.073045 1452:0.13448 1453:0.113679 1454:0.164472 1455:0.120935 1456:0 1457:0 1458:0 1459:0.01935 1460:0.013545 1461:0.027573001 1462:0.056598 1463:0.207041 1464:0.19833399 1465:0 1466:0 1467:0 1468:0.84170997 1469:0.077399001 1470:0.029023999 1471:0.042569 1472:0.131578 1473:0.125773 1474:0 1475:0 1476:0 1477:0.185488 1478:0.065747999 1479:0.121046 1480:0.102323 1481:0.14804199 1482:0.108854 1483:0 1484:0 1485:0 1486:0.089695998 1487:0.047896001 1488:0.023513 1489:0.069231004 1490:0.239915 1491:0.19158299 1492:0 1493:0 1494:0 1495:0.75762498 1496:0.069666997 1497:0.026125001 1498:0.038316999 1499:0.118433 1500:0.113208 1501:0 1502:0 1503:0 1504:0.40058401 1505:0 1506:0.019594001 1507:0.0065310001 1508:0.108854 1509:0.108854 1510:0 1511:0 1512:0 1513:0.344437 1514:0.015621 1515:0.029066 1516:0.010372 1517:0.126123 1518:0.126123 1519:0 1520:0 1521:0 1522:0.452122 1523:0.052370001 1524:0.032522999 1525:0.071896002 1526:0.266267 1527:0.173499 1528:0 1529:0 1530:0 1531:0.40608999 1532:0.194626 1533:0.16953 1534:0.036428001 1535:0.178877 1536:0.13355 1537:0 1538:0 1539:0 1540:0.37382299 1541:0.046351999 1542:0.098273002 1543:0.068503 1544:0.23316699 1545:0.20166899 1546:0 1547:0 1548:0 1549:0.263605 1550:0.030533999 1551:0.018962 1552:0.041917998 1553:0.15524399 1554:0.101157 1555:0 1556:0 1557:0 1558:0.189734 1559:0.17114501 1560:0.26334301 1561:0.35244301 1562:0.16517299 1563:0.057110999 1564:0 1565:0 1566:0 1567:0.217953 1568:0.027024999 1569:0.057296999 1570:0.03994 1571:0.13594601 1572:0.117581 1573:0 1574:0 1575:0 1576:0.701042 1577:0.131653 1578:0.084397003 1579:0.048115 1580:0.0071669999 1581:0.005599 1582:0 1583:0 1584:0 1585:0.199312 1586:0.179785 1587:0.27663699 1588:0.370235 1589:0.173511 1590:0.059994001 1591:0 1592:0 1593:0 1594:0.26424599 1595:0.036114 1596:0.032623999 1597:0.01443 1598:0.058425002 1599:0.051367 1600:0 1601:0 1602:0 1603:0.73642999 1604:0.138299 1605:0.088656999 1606:0.050544001 1607:0.0075289998 1608:0.0058820001 1609:0 1610:0 1611:0 1612:0.067248002 1613:0.057641 1614:0.049524002 1615:0.048386998 1616:0.107949 1617:0.077050999 1618:0 1619:0 1620:0 1621:0.79668403 1622:0.108881 1623:0.098359004 1624:0.043505002 1625:0.176148 1626:0.15486801 1627:0 1628:0 1629:0 1630:0.028372999 1631:0.0099299997 1632:0.013122 1633:0.010994 1634:0.047524001 1635:0.046105999 1636:0 1637:0 1638:0 1639:0.202747 1640:0.173783 1641:0.149312 1642:0.14588299 1643:0.32545999 1644:0.232302 1645:0 1646:0 1647:0 1648:0.073296003 1649:0 1650:0.01064 1651:0.003547 1652:0.022461999 1653:0.022461999 1654:0 1655:0 1656:0 1657:0.186529 1658:0.065284997 1659:0.086269997 1660:0.072279997 1661:0.31243601 1662:0.30310899 1663:0 1664:0 1665:0 1666:0.031088 1667:0.021762 1668:0.044300999 1669:0.090933003 1670:0.332643 1671:0.31865299 1672:0 1673:0 1674:0 1675:0.481866 1676:0 1677:0.069948003 1678:0.023316 1679:0.147669 1680:0.147669 1681:0 1682:0 1683:0 1684:0.108808 1685:0.021762 1686:0.044300999 1687:0.117358 1688:0.34507799 1689:0.32642499 1690:0 1691:0 1692:0 1693:0.011832 1694:0.0082820002 1695:0.016860001 1696:0.034607999 1697:0.126601 1698:0.121277 1699:0 1700:0 1701:0 1702:0.51468599 1703:0.047327001 1704:0.017748 1705:0.02603 1706:0.080457002 1707:0.076907001 1708:0 1709:0 1710:0 1711:0.041412 1712:0.0082820002 1713:0.016860001 1714:0.044665001 1715:0.13133401 1716:0.124235 1717:0 1718:0 1719:0 1720:0.53213799 1721:0.065370999 1722:0 1723:0 1724:0.42594701 1725:0.42594701 1726:0 1727:0 1728:0 1729:0.124899 1730:0.011485 1731:0.004307 1732:0.0063169999 1733:0.019524001 1734:0.018663 1735:0 1736:0 1737:0 1738:0.066039003 1739:0 1740:0.0032299999 1741:0.0010770001 1742:0.017945001 1743:0.017945001 1744:0 1745:0 1746:0 1747:0.129134 1748:0.015864 1749:0 1750:0 1751:0.103365 1752:0.103365 1753:0 1754:0 1755:0 1756:0.86245 1757:0.27341399 1758:0.16760901 1759:0.055055998 1760:0.24312299 1761:0.177084 1762:0 1763:0 1764:0 #
-0.020408163360521217 1:0.63902801 2:0.226099 3:0.115343 4:0.112992 5:0.145841 6:0.119356 7:0 8:0 9:0 10:0.12841301 11:0.062772997 12:0.030097 13:0.014446 14:0.179205 15:0.128528 16:0 17:0 18:0 19:0.397737 20:0.124687 21:0.169689 22:0.116203 23:0.30268899 24:0.249947 25:0 26:0 27:0 28:0.117521 29:0.019721 30:0.0073950002 31:0.022874 32:0.12818401 33:0.086106002 34:0 35:0 36:0 37:0.12953299 38:0.063321002 39:0.030359 40:0.014572 41:0.180768 42:0.129648 43:0 44:0 45:0 46:0.71769297 47:0.33909801 48:0.062742002 49:0.083848998 50:0.031805001 51:0.0266 52:0 53:0 54:0 55:0.118546 56:0.019893 57:0.00746 58:0.023073001 59:0.129302 60:0.086856 61:0 62:0 63:0 64:0.388136 65:0.172672 66:0.090673 67:0.193085 68:0.130979 69:0.058405001 70:0 71:0 72:0 73:0.66037202 74:0.312015 75:0.057730999 76:0.077151999 77:0.029265 78:0.024475999 79:0 80:0 81:0 82:0.054166 83:0.018728999 84:0.0055869999 85:0.005959 86:0.013462 87:0.011706 88:0 89:0 90:0 91:0.35713601 92:0.15888099 93:0.083430998 94:0.177664 95:0.120518 96:0.053741001 97:0 98:0 99:0 100:0.330798 101:0.290519 102:0.21325999 103:0.063796997 104:0.0056400001 105:0.00266 106:0 107:0 108:0 109:0.108531 110:0.037528001 111:0.011194 112:0.011941 113:0.026973 114:0.023455 115:0 116:0 117:0 118:0.023455 119:0.008955 120:0.011834 121:0.0091690002 122:0.053199999 123:0.049042001 124:0 125:0 126:0 127:0.662808 128:0.58210301 129:0.427302 130:0.127828 131:0.011301 132:0.0053309998 133:0 134:0 135:0 136:0.021322001 137:0 138:0.0095950002 139:0.006823 140:0.026226999 141:0.025587 142:0 143:0 144:0 145:0.183139 146:0.069926001 147:0.092402004 148:0.071590997 149:0.41539201 150:0.382927 151:0 152:0 153:0 154:0.149841 155:0.023309 156:0.072423004 157:0.065762997 158:0.44619301 159:0.391251 160:0 161:0 162:0 163:0.16649 164:0 165:0.074919999 166:0.053277001 167:0.20478299 168:0.199788 169:0 170:0 171:0 172:0.183139 173:0.046617001 174:0.069926001 175:0.129862 176:0.194793 177:0.174814 178:0 179:0 180:0 181:0.14281 182:0.022214999 183:0.069025002 184:0.062678002 185:0.425257 186:0.37289301 187:0 188:0 189:0 190:0.036495999 191:0.042842999 192:0.057124 193:0.183273 194:0.31497601 195:0.269752 196:0 197:0 198:0 199:0.174546 200:0.044429999 201:0.066644996 202:0.123769 203:0.185653 204:0.166612 205:0 206:0 207:0 208:0.337984 209:0.119802 210:0.220562 211:0.18644699 212:0.269752 213:0.198347 214:0 215:0 216:0 217:0.030638 218:0.035967 219:0.047956001 220:0.15385699 221:0.26442099 222:0.226457 223:0 224:0 225:0 226:0.066605002 227:0.037299 228:0.105902 229:0.161184 230:0.42160901 231:0.379648 232:0 233:0 234:0 235:0.283737 236:0.100573 237:0.18516199 238:0.15652101 239:0.226457 240:0.166512 241:0 242:0 243:0 244:0.137206 245:0.073265001 246:0.035967 247:0.105902 248:0.36699301 249:0.29306099 250:0 251:0 252:0 253:0.449651 254:0.140962 255:0.191837 256:0.13136999 257:0.34219599 258:0.28257099 259:0 260:0 261:0 262:0.13286 263:0.022295 264:0.0083600003 265:0.025859 266:0.144915 267:0.097344004 268:0 269:0 270:0 271:0.34867701 272:0.015814001 273:0.029424001 274:0.010499 275:0.127676 276:0.127676 277:0 278:0 279:0 280:0.457688 281:0.053015001 282:0.032923002 283:0.072782002 284:0.26954401 285:0.175635 286:0 287:0 288:0 289:0.106591 290:0.017887 291:0.0067070001 292:0.020746 293:0.116262 294:0.078097999 295:0 296:0 297:0 298:0.348995 299:0.155259 300:0.081528999 301:0.173614 302:0.11777 303:0.052515998 304:0 305:0 306:0 307:0.36719301 308:0.042532001 309:0.026413999 310:0.058391001 311:0.21625 312:0.140908 313:0 314:0 315:0 316:0.264294 317:0.2384 318:0.36682999 319:0.49094301 320:0.23008101 321:0.079553001 322:0 323:0 324:0 325:0.32812399 326:0.145974 327:0.076654002 328:0.163231 329:0.110727 330:0.049375001 331:0 332:0 333:0 334:0.30392599 335:0.26691899 336:0.19593599 337:0.058614999 338:0.0051819999 339:0.002444 340:0 341:0 342:0 343:0.24848901 344:0.224143 345:0.344892 346:0.461584 347:0.21632101 348:0.074795999 349:0 350:0 351:0 352:0.32944399 353:0.045024 354:0.040672999 355:0.017990001 356:0.072839998 357:0.064041004 358:0 359:0 360:0 361:0.53004497 362:0.465505 363:0.341712 364:0.102224 365:0.0090370001 366:0.0042630001 367:0 368:0 369:0 370:0.017051 371:0 372:0.007673 373:0.0054560001 374:0.020973001 375:0.020462001 376:0 377:0 378:0 379:0.57454902 380:0.078521997 381:0.070933998 382:0.031374998 383:0.127033 384:0.111687 385:0 386:0 387:0 388:0.020462001 389:0.0071620001 390:0.0094640004 391:0.0079290001 392:0.034272999 393:0.03325 394:0 395:0 396:0 397:0.188811 398:0 399:0.084964998 400:0.060419999 401:0.23223799 402:0.22657301 403:0 404:0 405:0 406:0.207692 407:0.052866999 408:0.079301 409:0.147273 410:0.220909 411:0.19825201 412:0 413:0 414:0 415:0.22657301 416:0.079301 417:0.10479 418:0.087797001 419:0.37950999 420:0.368182 421:0 422:0 423:0 424:0.037762001 425:0.026434001 426:0.053810999 427:0.110454 428:0.40405601 429:0.387063 430:0 431:0 432:0 433:0.106423 434:0.02709 435:0.040633999 436:0.075464003 437:0.113195 438:0.101586 439:0 440:0 441:0 442:0.206074 443:0.073045 444:0.13448 445:0.113679 446:0.164472 447:0.120935 448:0 449:0 450:0 451:0.01935 452:0.013545 453:0.027573001 454:0.056598 455:0.207041 456:0.19833399 457:0 458:0 459:0 460:0.84170997 461:0.077399001 462:0.029023999 463:0.042569 464:0.131578 465:0.125773 466:0 467:0 468:0 469:0.185488 470:0.065747999 471:0.121046 472:0.102323 473:0.14804199 474:0.108854 475:0 476:0 477:0 478:0.089695998 479:0.047896001 480:0.023513 481:0.069231004 482:0.239915 483:0.19158299 484:0 485:0 486:0 487:0.75762498 488:0.069666997 489:0.026125001 490:0.038316999 491:0.118433 492:0.113208 493:0 494:0 495:0 496:0.40058401 497:0 498:0.019594001 499:0.0065310001 500:0.108854 501:0.108854 502:0 503:0 504:0 505:0.33977699 506:0.01541 507:0.028673001 508:0.010231 509:0.124417 510:0.124417 511:0 512:0 513:0 514:0.44600499 515:0.051661 516:0.032083001 517:0.070923999 518:0.26266399 519:0.171152 520:0 521:0 522:0 523:0.43248999 524:0.168689 525:0.156121 526:0.035936002 527:0.176457 528:0.131743 529:0 530:0 531:0 532:0.36876601 533:0.045724999 534:0.096943997 535:0.067576997 536:0.243907 537:0.212834 538:0 539:0 540:0 541:0.27473301 542:0.031823002 543:0.019763 544:0.043687999 545:0.161798 546:0.105427 547:0 548:0 549:0 550:0.197744 551:0.17837 552:0.274461 553:0.367322 554:0.17214601 555:0.059521999 556:0 557:0 558:0 559:0.227155 560:0.028166 561:0.059716001 562:0.041625999 563:0.150243 564:0.13110299 565:0 566:0 567:0 568:0.64442903 569:0.188252 570:0.130403 571:0.048044998 572:0.044310998 573:0.010504 574:0 575:0 576:0 577:0.209187 578:0.188692 579:0.29034299 580:0.38857901 581:0.182108 582:0.062965997 583:0 584:0 585:0 586:0.27733901 587:0.037903 588:0.03424 589:0.015145 590:0.061319999 591:0.053911999 592:0 593:0 594:0 595:0.68172002 596:0.199145 597:0.137949 598:0.050825998 599:0.046875 600:0.011112 601:0 602:0 603:0 604:0.070579998 605:0.060497001 606:0.051978 607:0.050783999 608:0.113709 609:0.081280001 610:0 611:0 612:0 613:0.79632801 614:0.108832 615:0.098315001 616:0.043485001 617:0.17606901 618:0.154799 619:0 620:0 621:0 622:0.02836 623:0.0099259997 624:0.013117 625:0.01099 626:0.047502998 627:0.046085 628:0 629:0 630:0 631:0.202657 632:0.173706 633:0.14924499 634:0.145818 635:0.32649601 636:0.23338 637:0 638:0 639:0 640:0.066174001 641:0.0033090001 642:0.013826 643:0.0041359998 644:0.027178001 645:0.027178001 646:0 647:0 648:0 649:0.18625601 650:0.065188996 651:0.086143002 652:0.072173998 653:0.31197801 654:0.30266601 655:0 656:0 657:0 658:0.031043001 659:0.02173 660:0.044236001 661:0.090800002 662:0.332156 663:0.318187 664:0 665:0 666:0 667:0.43459699 668:0.02173 669:0.090800002 670:0.027162001 671:0.178495 672:0.178495 673:0 674:0 675:0 676:0.108649 677:0.02173 678:0.044236001 679:0.117186 680:0.36009401 681:0.34146899 682:0 683:0 684:0 685:0.011806 686:0.0082639996 687:0.016822999 688:0.034531999 689:0.126321 690:0.121008 691:0 692:0 693:0 694:0.513547 695:0.047223002 696:0.017709 697:0.025971999 698:0.080279 699:0.076737002 700:0 701:0 702:0 703:0.04132 704:0.0082639996 705:0.016822999 706:0.044566002 707:0.13694599 708:0.129862 709:0 710:0 711:0 712:0.54778397 713:0.048402999 714:0 715:0 716:0.41615 717:0.41615 718:0 719:0 720:0 721:0.121851 722:0.011205 723:0.0042019999 724:0.0061630001 725:0.019048 726:0.018208001 727:0 728:0 729:0 730:0.064427003 731:0 732:0.003151 733:0.00105 734:0.017507 735:0.017507 736:0 737:0 738:0 739:0.12997399 740:0.011485 741:0 742:0 743:0.098741002 744:0.098741002 745:0 746:0 747:0 748:0.877747 749:0.247904 750:0.135507 751:0.060995001 752:0.243212 753:0.17276201 754:0 755:0 756:0 757:0.36162701 758:0.141049 759:0.13054 760:0.030048 761:0.147544 762:0.110157 763:0 764:0 765:0 766:0.30834401 767:0.038233001 768:0.08106 769:0.056504 770:0.203943 771:0.17796201 772:0 773:0 774:0 775:0.37493399 776:0.0042770002 777:0.044886 778:0.030998001 779:0.164813 780:0.140521 781:0 782:0 783:0 784:0.45414501 785:0.174529 786:0.095476002 787:0.088347003 788:0.350326 789:0.226017 790:0 791:0 792:0 793:0.224005 794:0.027775001 795:0.058888 796:0.041049 797:0.14816 798:0.12928499 799:0 800:0 801:0 802:0.63549203 803:0.18564101 804:0.12859499 805:0.047378998 806:0.043696001 807:0.010358 808:0 809:0 810:0 811:0.32992601 812:0.126791 813:0.069361001 814:0.064181998 815:0.254504 816:0.164196 817:0 818:0 819:0 820:0.225309 821:0.162738 822:0.14275099 823:0.31193399 824:0.152226 825:0.049297001 826:0 827:0 828:0 829:0.75295001 830:0.219953 831:0.152363 832:0.056136001 833:0.051771998 834:0.012273 835:0 836:0 837:0 838:0.077954002 839:0.066817999 840:0.057409 841:0.056090999 842:0.12559 843:0.089772001 844:0 845:0 846:0 847:0.26695299 848:0.192817 849:0.169135 850:0.369589 851:0.180363 852:0.058409002 853:0 854:0 855:0 856:0.07 857:0.005591 858:0.001455 859:0.0033179999 860:0.0087270001 861:0.0081820004 862:0 863:0 864:0 865:0.29638699 866:0.25404599 867:0.218272 868:0.21325999 869:0.477503 870:0.34132001 871:0 872:0 873:0 874:0.096778996 875:0.0048389998 876:0.02022 877:0.0060490002 878:0.039749 879:0.039749 880:0 881:0 882:0 883:0.26614299 884:0.021257 885:0.0055300002 886:0.012616 887:0.033181999 888:0.031107999 889:0 890:0 891:0 892:0.55630898 893:0.097470999 894:0.035774 895:0.0051850001 896:0.039749 897:0.039749 898:0 899:0 900:0 901:0.132193 902:0.00661 903:0.027619001 904:0.008262 905:0.054294001 906:0.054294001 907:0 908:0 909:0 910:0.033048 911:0.00661 912:0.013455 913:0.035645001 914:0.109532 915:0.103866 916:0 917:0 918:0 919:0.75987601 920:0.133138 921:0.048864 922:0.0070819999 923:0.054294001 924:0.054294001 925:0 926:0 927:0 928:0.39658001 929:0.044851001 930:0.0094419997 931:0.018413 932:0.30735001 933:0.304517 934:0 935:0 936:0 937:0.015749 938:0.00315 939:0.0064119999 940:0.016987 941:0.052198 942:0.049497999 943:0 944:0 945:0 946:0.208793 947:0.018448999 948:0 949:0 950:0.158619 951:0.158619 952:0 953:0 954:0 955:0.18899301 956:0.021374 957:0.0044999998 958:0.0087750005 959:0.14647 960:0.14511999 961:0 962:0 963:0 964:0.83955801 965:0.081110001 966:0.040724002 967:0.026324 968:0.23174199 969:0.23174199 970:0 971:0 972:0 973:0.086669996 974:0.0076580001 975:0 976:0 977:0.065843001 978:0.065843001 979:0 980:0 981:0 982:0.58530301 983:0.165308 984:0.090359002 985:0.040672999 986:0.16217899 987:0.115202 988:0 989:0 990:0 991:0.348501 992:0.033668999 993:0.016904 994:0.010927 995:0.096196003 996:0.096196003 997:0 998:0 999:0 1000:0.45674601 1001:0.25408 1002:0.257815 1003:0.245814 1004:0.14760999 1005:0.033248 1006:0 1007:0 1008:0 1009:0.24422801 1010:0.002786 1011:0.029239001 1012:0.020191999 1013:0.107357 1014:0.091534004 1015:0 1016:0 1017:0 1018:0.295825 1019:0.113686 1020:0.062192 1021:0.057548001 1022:0.22819801 1023:0.14722501 1024:0 1025:0 1026:0 1027:0.48879999 1028:0.024491999 1029:0.021465 1030:0.041965999 1031:0.051391002 1032:0.045405999 1033:0 1034:0 1035:0 1036:0.39712799 1037:0.49729601 1038:0.180144 1039:0.122458 1040:0.176119 1041:0.088781998 1042:0 1043:0 1044:0 1045:0.30346501 1046:0.116622 1047:0.063798003 1048:0.059034999 1049:0.234092 1050:0.15102699 1051:0 1052:0 1053:0 1054:0.207239 1055:0.14968599 1056:0.131302 1057:0.28691599 1058:0.140018 1059:0.045343 1060:0 1061:0 1062:0 1063:0.40738499 1064:0.51013899 1065:0.18479601 1066:0.12562101 1067:0.180668 1068:0.091075003 1069:0 1070:0 1071:0 1072:0.088216998 1073:0.034581002 1074:0.077065997 1075:0.083734997 1076:0.256675 1077:0.13299499 1078:0 1079:0 1080:0 1081:0.28004801 1082:0.20227499 1083:0.177432 1084:0.38771799 1085:0.18921 1086:0.061274 1087:0 1088:0 1089:0 1090:0.073432997 1091:0.0058650002 1092:0.001526 1093:0.003481 1094:0.0091549996 1095:0.0085829999 1096:0 1097:0 1098:0 1099:0.11921 1100:0.046730001 1101:0.104142 1102:0.113154 1103:0.34685299 1104:0.179721 1105:0 1106:0 1107:0 1108:0.22602201 1109:0.036954999 1110:0.042343002 1111:0.074959002 1112:0.491669 1113:0.39930499 1114:0 1115:0 1116:0 1117:0.084048003 1118:0.0067130001 1119:0.001746 1120:0.0039840001 1121:0.010479 1122:0.0098240003 1123:0 1124:0 1125:0 1126:0.17568301 1127:0.030781001 1128:0.011297 1129:0.001637 1130:0.012553 1131:0.012553 1132:0 1133:0 1134:0 1135:0.25869501 1136:0.042296998 1137:0.048464 1138:0.085795 1139:0.56274301 1140:0.45702699 1141:0 1142:0 1143:0 1144:0.46766999 1145:0.299245 1146:0.18687101 1147:0.050647002 1148:0.076188996 1149:0.069858 1150:0 1151:0 1152:0 1153:0.222287 1154:0.038947001 1155:0.014294 1156:0.0020719999 1157:0.015883001 1158:0.015883001 1159:0 1160:0 1161:0 1162:0.116012 1163:0.01312 1164:0.0027620001 1165:0.005386 1166:0.089909002 1167:0.089079998 1168:0 1169:0 1170:0 1171:0.59172899 1172:0.37862599 1173:0.236443 1174:0.064083003 1175:0.0964 1176:0.08839 1177:0 1178:0 1179:0 1180:0.187828 1181:0.008839 1182:0.018438 1183:0.045921002 1184:0.428 1185:0.35646001 1186:0 1187:0 1188:0 1189:0.080638997 1190:0.0091199996 1191:0.00192 1192:0.0037440001 1193:0.062495001 1194:0.061919 1195:0 1196:0 1197:0 1198:0.358219 1199:0.034607999 1200:0.017376 1201:0.011232 1202:0.098879002 1203:0.098879002 1204:0 1205:0 1206:0 1207:0.130558 1208:0.0061440002 1209:0.012816 1210:0.031920001 1211:0.29750001 1212:0.24777301 1213:0 1214:0 1215:0 1216:0.53749597 1217:0.149038 1218:0.127534 1219:0.134638 1220:0.48954499 1221:0.28780401 1222:0 1223:0 1224:0 1225:0.31521699 1226:0.030453 1227:0.01529 1228:0.0098839998 1229:0.087008998 1230:0.087008998 1231:0 1232:0 1233:0 1234:0.413124 1235:0.22981399 1236:0.233193 1237:0.22233699 1238:0.13351201 1239:0.030073 1240:0 1241:0 1242:0 1243:0.472974 1244:0.131147 1245:0.112225 1246:0.118476 1247:0.43077901 1248:0.25325501 1249:0 1250:0 1251:0 1252:0.071760997 1253:0.071043 1254:0.034508001 1255:0.026102999 1256:0.075773999 1257:0.056175999 1258:0 1259:0 1260:0 1261:0.40268999 1262:0.020176999 1263:0.017682999 1264:0.034573 1265:0.042337999 1266:0.037407 1267:0 1268:0 1269:0 1270:0.32716799 1271:0.40968999 1272:0.14840899 1273:0.100885 1274:0.14509299 1275:0.073142 1276:0 1277:0 1278:0 1279:0.26371801 1280:0.13347401 1281:0.102699 1282:0.174565 1283:0.29976499 1284:0.167254 1285:0 1286:0 1287:0 1288:0.443838 1289:0.080141 1290:0.044264998 1291:0.041402999 1292:0.15776099 1293:0.14509299 1294:0 1295:0 1296:0 1297:0.39992499 1298:0.50079799 1299:0.181412 1300:0.12332 1301:0.177359 1302:0.089406997 1303:0 1304:0 1305:0 1306:0.086600997 1307:0.033948001 1308:0.075654998 1309:0.082202002 1310:0.251975 1311:0.13056 1312:0 1313:0 1314:0 1315:0.54254001 1316:0.097962998 1317:0.054108001 1318:0.050609998 1319:0.192844 1320:0.177359 1321:0 1322:0 1323:0 1324:0.096197002 1325:0.052134 1326:0.034779001 1327:0.046557002 1328:0.069939002 1329:0.041257001 1330:0 1331:0 1332:0 1333:0.116801 1334:0.045786001 1335:0.102037 1336:0.110867 1337:0.339843 1338:0.176089 1339:0 1340:0 1341:0 1342:0.22145399 1343:0.036208 1344:0.041487999 1345:0.073444001 1346:0.48173299 1347:0.39123601 1348:0 1349:0 1350:0 1351:0.129742 1352:0.070313998 1353:0.046907 1354:0.062792003 1355:0.094328001 1356:0.055644002 1357:0 1358:0 1359:0 1360:0.56877297 1361:0.045364998 1362:0.012614 1363:0.010512 1364:0.057932999 1365:0.057932999 1366:0 1367:0 1368:0 1369:0.191007 1370:0.031230001 1371:0.035783999 1372:0.063346997 1373:0.415501 1374:0.337446 1375:0 1376:0 1377:0 1378:0.34530401 1379:0.220948 1380:0.137977 1381:0.037395999 1382:0.056253999 1383:0.051580001 1384:0 1385:0 1386:0 1387:0.490574 1388:0.039128002 1389:0.01088 1390:0.0090669999 1391:0.049968001 1392:0.049968001 1393:0 1394:0 1395:0 1396:0.35316199 1397:0.15764099 1398:0.066005997 1399:0.013258 1400:0.245489 1401:0.121092 1402:0 1403:0 1404:0 1405:0.42561999 1406:0.27233899 1407:0.17006899 1408:0.046092998 1409:0.069339 1410:0.063576996 1411:0 1412:0 1413:0 1414:0.135102 1415:0.006358 1416:0.013262 1417:0.03303 1418:0.30785301 1419:0.25639501 1420:0 1421:0 1422:0 1423:0.435305 1424:0.194308 1425:0.081358999 1426:0.016341001 1427:0.30258799 1428:0.149257 1429:0 1430:0 1431:0 1432:0.26071599 1433:0.095664002 1434:0.083494999 1435:0.137188 1436:0.224408 1437:0.153181 1438:0 1439:0 1440:0 1441:0.129467 1442:0.0060930001 1443:0.012709 1444:0.031652998 1445:0.29501399 1446:0.245703 1447:0 1448:0 1449:0 1450:0.53300601 1451:0.14779299 1452:0.126469 1453:0.133513 1454:0.48545501 1455:0.2854 1456:0 1457:0 1458:0 1459:0.249844 1460:0.091674 1461:0.080012999 1462:0.131467 1463:0.215049 1464:0.14679299 1465:0 1466:0 1467:0 1468:0.076443002 1469:0.036031999 1470:0.037888002 1471:0.051787 1472:0.062020998 1473:0.018563 1474:0 1475:0 1476:0 1477:0.637209 1478:0.176686 1479:0.15119299 1480:0.159615 1481:0.58036202 1482:0.34119499 1483:0 1484:0 1485:0 1486:0.09668 1487:0.095711999 1488:0.046489999 1489:0.035167001 1490:0.102085 1491:0.075681999 1492:0 1493:0 1494:0 1495:0.091387004 1496:0.043076001 1497:0.045295 1498:0.061911002 1499:0.074146003 1500:0.022191999 1501:0 1502:0 1503:0 1504:0.018208999 1505:0.0047800001 1506:0.003756 1507:0.0079100002 1508:0.018835001 1509:0.015933 1510:0 1511:0 1512:0 1513:0.30874601 1514:0.15626401 1515:0.120234 1516:0.20437101 1517:0.35094699 1518:0.195811 1519:0 1520:0 1521:0 1522:0.51962 1523:0.093824998 1524:0.051823001 1525:0.048471998 1526:0.184697 1527:0.16986699 1528:0 1529:0 1530:0 1531:0.3044 1532:0.117115 1533:0.098636001 1534:0.056566998 1535:0.168772 1536:0.12176 1537:0 1538:0 1539:0 1540:0.202447 1541:0.048638001 1542:0.096711002 1543:0.039712999 1544:0.222287 1545:0.222287 1546:0 1547:0 1548:0 1549:0.57537103 1550:0.103891 1551:0.057383001 1552:0.053672001 1553:0.204513 1554:0.18809199 1555:0 1556:0 1557:0 1558:0.102018 1559:0.055289 1560:0.036883999 1561:0.049373999 1562:0.074170999 1563:0.043753002 1564:0 1565:0 1566:0 1567:0.224168 1568:0.053856 1569:0.107088 1570:0.043974001 1571:0.24613599 1572:0.24613599 1573:0 1574:0 1575:0 1576:0.55652499 1577:0.081592001 1578:0.070974998 1579:0.145404 1580:0.099556997 1581:0.099556997 1582:0 1583:0 1584:0 1585:0.110346 1586:0.059801999 1587:0.039895002 1588:0.053405002 1589:0.080225997 1590:0.047325 1591:0 1592:0 1593:0 1594:0.48374301 1595:0.038582999 1596:0.010729 1597:0.0089410003 1598:0.049272001 1599:0.049272001 1600:0 1601:0 1602:0 1603:0.60195702 1604:0.088252999 1605:0.076769002 1606:0.15727399 1607:0.107684 1608:0.107684 1609:0 1610:0 1611:0 1612:0.387106 1613:0.254269 1614:0.21954 1615:0.19764601 1616:0.049272001 1617:0.049272001 1618:0 1619:0 1620:0 1621:0.51387501 1622:0.040987 1623:0.011397 1624:0.0094969999 1625:0.052340999 1626:0.052340999 1627:0 1628:0 1629:0 1630:0.36993599 1631:0.16512901 1632:0.069141001 1633:0.013887 1634:0.257148 1635:0.126844 1636:0 1637:0 1638:0 1639:0.41121799 1640:0.270107 1641:0.233215 1642:0.209957 1643:0.052340999 1644:0.052340999 1645:0 1646:0 1647:0 1648:0.270192 1649:0.091132998 1650:0.13030501 1651:0.12768801 1652:0.120976 1653:0.044828001 1654:0 1655:0 1656:0 1657:0.49424899 1658:0.22061899 1659:0.092376001 1660:0.018554 1661:0.34356099 1662:0.169468 1663:0 1664:0 1665:0 1666:0.29601899 1667:0.108617 1668:0.094801001 1669:0.155764 1670:0.254794 1671:0.173923 1672:0 1673:0 1674:0 1675:0.36098701 1676:0.121758 1677:0.17409199 1678:0.170596 1679:0.16162901 1680:0.059891999 1681:0 1682:0 1683:0 1684:0.034288 1685:0.067336001 1686:0.246673 1687:0.116569 1688:0.095138997 1689:0.010715 1690:0 1691:0 1692:0 1693:0.50204498 1694:0.184214 1695:0.160781 1696:0.26417401 1697:0.43212801 1698:0.294972 1699:0 1700:0 1701:0 1702:0.153607 1703:0.072403997 1704:0.076134004 1705:0.104063 1706:0.124627 1707:0.037301999 1708:0 1709:0 1710:0 1711:0.058153 1712:0.114201 1713:0.41835499 1714:0.19769999 1715:0.161355 1716:0.018173 1717:0 1718:0 1719:0 1720:0.058534998 1721:0.01033 1722:0.0033480001 1723:0.022381 1724:0.111332 1725:0.094402999 1726:0 1727:0 1728:0 1729:0.091711 1730:0.043228999 1731:0.045456 1732:0.06213 1733:0.074408002 1734:0.022271 1735:0 1736:0 1737:0 1738:0.018274 1739:0.004797 1740:0.0037690001 1741:0.0079380004 1742:0.018902 1743:0.015989 1744:0 1745:0 1746:0 1747:0.034947999 1748:0.0061670002 1749:0.0019990001 1750:0.013363 1751:0.066469997 1752:0.056363001 1753:0 1754:0 1755:0 1756:0.95867997 1757:0.161493 1758:0.078576997 1759:0.029123999 1760:0.111812 1761:0.054821 1762:0 1763:0 1764:0 #
